name,x_0,x_1,x_2,x_3,x_4,x_5,x_6,x_7,x_8,x_9,x_10,x_11,x_12,x_13,x_14,x_15,x_16,x_17,x_18,x_19,x_20,x_21,x_22,x_23,x_24,x_25,x_26,x_27,x_28,x_29,x_30,x_31,x_32,x_33,x_34,x_35,x_36,x_37,x_38,x_39,x_40,x_41,x_42,x_43,x_44,x_45,x_46,x_47,x_48,x_49,x_50,x_51,x_52,x_53,x_54,x_55,x_56,x_57,x_58,x_59,x_60,x_61,x_62,x_63,label
0002a328c42751880bbdd991d6c393e4.atk,-0.5639970302581787,0.09465332329273224,1.717596411705017,0.21780548989772797,-0.786127507686615,1.2389848232269287,-1.8766396045684814,-0.029259387403726578,-0.8193261027336121,1.27395498752594,-0.11427789181470871,0.4873855710029602,-0.7489452958106995,1.4414504766464233,1.815718173980713,-0.13083231449127197,-0.46910956501960754,-0.14651928842067719,-0.37905198335647583,-0.3075500726699829,-0.5982435345649719,-0.5939550995826721,0.7960970997810364,0.8429247736930847,-0.3725236654281616,-0.9135728478431702,-1.9910484552383423,-0.8594343662261963,0.010941069573163986,-0.3293249309062958,1.1083751916885376,0.278945654630661,-0.6136992573738098,-1.193143606185913,-0.5631952881813049,0.12902668118476868,0.5590311288833618,-1.0381627082824707,0.18563039600849152,0.29292863607406616,0.05124521255493164,-0.8856133818626404,-0.11039304733276367,0.7485359311103821,-1.9300042390823364,-1.7269024848937988,-0.08558129519224167,-0.5470856428146362,0.3960378170013428,-0.46807944774627686,0.6296173334121704,-0.714667022228241,1.1898841857910156,1.0971040725708008,-0.09274314343929291,0.10431500524282455,-0.4192056357860565,-1.2169288396835327,1.5623761415481567,-0.7774446606636047,-0.10615883022546768,-0.05175204202532768,-1.924290657043457,-1.2859776020050049,1
001cf2e6805e9b27c576f5a8c13f1479.atk,-0.8234716653823853,-0.029375309124588966,0.17564937472343445,-0.5066027045249939,-0.7984839081764221,-1.0793122053146362,-1.944246530532837,0.5512685179710388,0.05643303319811821,1.121373176574707,-1.6204502582550049,1.5654771327972412,0.7216725945472717,0.3632221817970276,0.4053800106048584,0.4049343466758728,-0.6255868673324585,-0.660076916217804,0.4313150644302368,0.07599889487028122,-0.474464476108551,-1.0319616794586182,0.20621433854103088,0.5498338341712952,-0.1687171757221222,-0.8042848706245422,-1.1814311742782593,-0.8844342827796936,0.12134259939193726,0.4686289429664612,-0.9365619421005249,-0.7005419731140137,-2.456249713897705,-0.6641886830329895,0.6602052450180054,-2.6859638690948486,0.5757603049278259,-0.5823740363121033,0.028625713661313057,-0.5468072295188904,-1.1849734783172607,-0.43240219354629517,0.4736931324005127,0.4173751473426819,-0.5289021134376526,-0.9518289566040039,0.714566707611084,0.2418898493051529,0.5827876329421997,-0.5319859981536865,-0.901229739189148,0.753036379814148,0.33826377987861633,0.25004637241363525,0.9274610280990601,0.8906906247138977,0.08588387817144394,-0.53387051820755,0.23063939809799194,-0.23107802867889404,0.7576470375061035,-0.8887777924537659,-1.462307095527649,-1.462335467338562,1
003048345e910a255e544ed3068ef7c2f323bd0e8add45cc0e2b26bd69c99fae.atk,0.26728934049606323,0.41831105947494507,0.036144427955150604,0.1526595950126648,0.37953096628189087,-0.6521214246749878,-0.6439922451972961,0.07121705263853073,0.4557086229324341,0.17109988629817963,-0.31720736622810364,-0.0828685536980629,-0.00853717140853405,0.40724390745162964,0.07853969186544418,0.06984908878803253,-0.05154137313365936,-0.107387475669384,-0.5601521134376526,-0.19595126807689667,-0.2488282322883606,-0.29990801215171814,0.14559032022953033,-0.564940333366394,-0.5137777328491211,-1.0028537511825562,-1.497282862663269,-0.8610775470733643,0.9155710935592651,0.49340543150901794,0.18839386105537415,-0.6382449865341187,-0.45301300287246704,0.16718238592147827,-0.41531673073768616,-0.006085578352212906,0.7717037200927734,-0.2568111717700958,-0.7098145484924316,0.5810605883598328,-0.31586557626724243,-1.0719859600067139,-0.30042073130607605,1.0462290048599243,0.4297177791595459,-0.5415890216827393,-0.347819060087204,0.09114991128444672,-0.4132084846496582,0.12055785953998566,-0.4021744132041931,0.050310999155044556,0.3350992202758789,0.5842962861061096,-0.5486065149307251,0.3007716238498688,0.0034340855199843645,-0.1642596572637558,0.6126048564910889,0.32092994451522827,0.1900920271873474,0.4010620415210724,-0.756187915802002,-0.1804233193397522,1
00373a69c3f4d03161fea26ed7eb695bbe50024c5316629585d7a09ad3d856c1.atk,1.297404408454895,-1.0212825536727905,1.7897924184799194,0.2916209399700165,-0.3610539138317108,0.3079274594783783,-1.5687469244003296,0.8604746460914612,-0.5470656752586365,0.3677729070186615,0.7060582637786865,0.23753774166107178,0.7533836364746094,-0.43585968017578125,-0.3231942057609558,0.29759424924850464,-0.6082202196121216,-0.5762653350830078,-1.2755200862884521,0.25017106533050537,-0.8163049817085266,0.06699533015489578,0.5706760883331299,-0.9858415126800537,-0.9592146277427673,-0.6027085185050964,-0.15963584184646606,-1.548929214477539,1.8637278079986572,1.1853326559066772,0.15074844658374786,0.5647653937339783,-1.71306574344635,-0.7446539402008057,0.5679895877838135,-0.9833989143371582,0.3625672161579132,0.05142930522561073,-1.1860536336898804,-0.31629759073257446,-0.33674144744873047,-1.291060447692871,-0.10545694828033447,0.5961639881134033,-0.13272976875305176,0.3881007432937622,-0.32323628664016724,-0.2908473014831543,0.2394060492515564,-0.131751149892807,-0.7050760388374329,0.9663776159286499,-0.5229897499084473,1.0501961708068848,0.008493260480463505,0.22561174631118774,-1.1363987922668457,0.3926197290420532,-0.1952609419822693,-1.0997893810272217,-1.482911467552185,0.36885032057762146,-0.8893484473228455,-0.7939531803131104,1
004b3dc6622a2a9374f6c289faf52d92c014452076d83648adf8e09d9ac82512.atk,0.3022606372833252,1.0007941722869873,0.11137799918651581,0.2510952353477478,-0.2774409055709839,-0.2938959002494812,-0.40654730796813965,-0.1989767849445343,0.35346221923828125,0.8611326813697815,-0.03032747097313404,0.294778436422348,0.49949195981025696,0.3405188024044037,0.3035676181316376,-0.02415396086871624,0.3647768497467041,-0.395639032125473,-0.09489831328392029,-0.6574172973632812,0.20903435349464417,-0.010207030922174454,-0.3694976568222046,-0.7252905964851379,-0.5199409127235413,-0.6014323234558105,-0.8701574802398682,-0.835205078125,0.3045695126056671,0.5729244351387024,0.5483611226081848,-0.1196490228176117,-1.220737338066101,0.13203386962413788,-0.5671635270118713,0.020233530551195145,0.6220060586929321,0.1772691160440445,-0.1711922585964203,-0.36474108695983887,-0.4208308160305023,-0.22668908536434174,0.13912953436374664,0.46919551491737366,0.3741832971572876,-0.6270803809165955,0.18665246665477753,-0.16262608766555786,-0.2693479657173157,-0.15805935859680176,-0.14473943412303925,-0.10917609184980392,0.4287862777709961,0.3811664283275604,-0.011463197879493237,-0.09939756989479065,0.031276971101760864,-0.257961243391037,1.2896320819854736,0.0775318592786789,-0.41609546542167664,0.1986944079399109,-0.3583284914493561,-0.3185315430164337,1
0056d6b61f45430102109b1e241dbdc8.atk,1.3244221210479736,1.1481363773345947,0.6476027965545654,-0.5711552500724792,1.364487886428833,0.24424979090690613,-1.3740589618682861,0.7995004057884216,0.41865190863609314,0.5154837965965271,-1.122544288635254,1.0690654516220093,0.010690612718462944,0.7125563621520996,-0.09431518614292145,0.553220272064209,-0.1302749216556549,-0.6812911629676819,-0.7896966934204102,0.23931342363357544,-1.6750562191009521,-0.3511596620082855,-1.7345279455184937,-0.7456310987472534,-0.7804087400436401,-0.8568627834320068,-0.5902947783470154,-0.7586789131164551,0.8627736568450928,-0.3474635183811188,-0.11682650446891785,-0.9206240177154541,-0.6728395819664001,0.7368023991584778,-0.5179923176765442,-0.8857197761535645,1.0218265056610107,0.5294390320777893,0.020169340074062347,0.7445957660675049,0.3046896457672119,0.44670388102531433,0.9829802513122559,-0.99647057056427,1.1526211500167847,-0.5211122035980225,-0.3814865052700043,0.6243025064468384,0.22816917300224304,-0.6608085036277771,-0.6662905812263489,-0.05368124321103096,1.2260023355484009,1.0783361196517944,0.2934395968914032,-0.01365482248365879,1.058199405670166,0.27641135454177856,0.6538296341896057,0.2821209728717804,-1.039473533630371,0.0592799186706543,-0.44612812995910645,-0.8892916440963745,0
0057d3bb7b503e7aab1c17717869e8cb.atk,0.6902725696563721,0.5548720955848694,1.0512381792068481,0.48262208700180054,-0.06215091422200203,-0.8539052605628967,0.08183903247117996,0.4051145613193512,0.8212903738021851,0.7892799973487854,-0.8260012865066528,-0.817976713180542,1.1333694458007812,-0.4504474103450775,0.031026847660541534,-0.2004125565290451,0.06736011803150177,-0.6794693470001221,0.07443467527627945,0.9709171652793884,0.2258424311876297,0.19935543835163116,-0.07704877108335495,-0.6432427763938904,-0.41039249300956726,-0.28410375118255615,-0.7513497471809387,-1.762984275817871,0.15073737502098083,0.7054863572120667,0.3687690794467926,-0.6902910470962524,0.26235055923461914,-0.5904304385185242,-2.191397190093994,-0.3252989649772644,0.6684021949768066,-0.2052466720342636,-1.0645273923873901,-0.8730038404464722,0.4073908030986786,-0.3251570463180542,-0.44711193442344666,0.22301344573497772,-0.388062447309494,-0.9398558139801025,0.15483200550079346,-0.5518808960914612,-0.47407403588294983,-0.8337355256080627,-0.10012933611869812,-0.5794062614440918,0.5263513326644897,0.8522366881370544,0.28851738572120667,-0.4369710683822632,-0.8305652141571045,0.4681362807750702,0.9195418357849121,-0.48213014006614685,0.36087411642074585,-0.023194529116153717,-0.967445433139801,0.03111974149942398,0
00608675b91eab138d55adbad58cbd4989cb8bee9eb978d0149bc221978bd25e.atk,0.33540332317352295,0.05221100151538849,0.8122302889823914,-0.06473700702190399,-0.1416923701763153,-0.2542630732059479,-0.4057265818119049,0.07263737916946411,-0.14369958639144897,0.9164581298828125,-0.4097723066806793,0.33333781361579895,0.7524335980415344,0.4598451554775238,0.3675748109817505,-0.35713958740234375,0.14783117175102234,-0.34007903933525085,-0.02425280027091503,0.15067058801651,-0.42069166898727417,-0.015661591663956642,0.08790449053049088,-0.7343443036079407,-0.03503942862153053,-0.6146442294120789,-1.4190456867218018,-0.36321568489074707,0.49463480710983276,0.0767727643251419,0.8101413249969482,-0.3746190369129181,-0.7110392451286316,-0.029380831867456436,-0.1391514092683792,-0.30590516328811646,0.17930495738983154,0.2557651400566101,-0.4824735224246979,-0.33194857835769653,-0.07188290357589722,-0.45523276925086975,-0.5325037837028503,0.16718848049640656,-0.28575727343559265,-0.20546802878379822,-0.42161548137664795,0.11345774680376053,-0.512502908706665,-0.45646336674690247,-0.45882442593574524,0.059838391840457916,0.34759747982025146,0.3104230463504791,0.12819325923919678,0.06818240135908127,0.3133411109447479,0.1077411100268364,0.57145756483078,0.008218113332986832,0.04050163924694061,0.5654518604278564,-0.04894203320145607,-0.2731291949748993,1
007858818b5f3e09f4717b773fef7447.atk,-0.4991760551929474,-0.705670177936554,0.9514848589897156,-0.8019335269927979,0.36955365538597107,0.5171986818313599,-2.3337175846099854,0.7784978151321411,0.27981555461883545,2.157269239425659,-0.473603218793869,1.340071678161621,-0.6211923360824585,0.29023993015289307,0.9608854055404663,0.17117652297019958,-1.639015793800354,-0.23229041695594788,0.9217655658721924,0.8686787486076355,-0.5071429014205933,-0.506013035774231,0.5978562831878662,-0.40281033515930176,-1.544330358505249,-0.45437124371528625,-0.020118046551942825,-0.4895045757293701,-0.09208560734987259,0.2764216959476471,0.4660723805427551,-1.2092468738555908,-2.018519163131714,-0.5261207222938538,-0.38091909885406494,-1.027543067932129,0.7661551237106323,-0.48178935050964355,0.17181512713432312,-0.38955485820770264,-0.9517232179641724,0.843811571598053,-0.8419560194015503,1.1477611064910889,-0.7605586647987366,-1.040855884552002,0.13002556562423706,-0.10826131701469421,-1.0535986423492432,-0.3811775743961334,-0.8628469109535217,0.36915266513824463,-0.48678767681121826,-0.22460348904132843,-0.49361953139305115,-0.3437965214252472,0.06157032772898674,-0.5414139032363892,0.012895707041025162,0.1562453806400299,-0.12303397804498672,0.30431756377220154,-0.6198473572731018,-1.891543984413147,1
007c976ab9d0bc64e615dd46345e300998e178d5dc3d72d20890ec4d405ebf82.atk,0.09548308700323105,1.2273582220077515,1.763256311416626,-0.5174883604049683,-0.46964699029922485,1.3336894512176514,-1.3329746723175049,1.2002809047698975,1.9294021129608154,0.1714114546775818,0.2444523572921753,1.0851410627365112,0.8853805661201477,-0.23187582194805145,-0.3875043988227844,-0.638714611530304,0.48629260063171387,-0.2909862995147705,-0.462090402841568,-0.4337660074234009,-0.1010640412569046,-1.5617430210113525,0.810387134552002,-0.8219589591026306,-0.38440725207328796,-2.095608949661255,-1.0116844177246094,-1.1845455169677734,1.9081212282180786,0.7140937447547913,1.0464043617248535,0.28099918365478516,-0.46768003702163696,-0.20001882314682007,0.7193432450294495,-0.4707924723625183,0.5762577652931213,0.14842399954795837,-0.573297917842865,0.2597200572490692,-0.29909569025039673,-1.8204188346862793,0.7226449251174927,-0.13712379336357117,-1.1937752962112427,-1.0038131475448608,0.06854196637868881,-1.3109092712402344,0.6514235138893127,-0.7595661878585815,0.2021593302488327,0.03716685622930527,0.8270495533943176,0.4333486557006836,-0.8910395503044128,1.3644282817840576,0.03394629806280136,-1.4108606576919556,-0.36566030979156494,-1.0578117370605469,-0.2723338007926941,2.0443127155303955,0.5304644107818604,-0.9696515202522278,1
00a9e23d563e046f0ceba649f17fb5ac.atk,0.09946926683187485,0.688164234161377,0.4645659923553467,-0.15528257191181183,0.4158211350440979,-0.23525288701057434,-0.44706976413726807,-0.10996688157320023,0.17202208936214447,0.5796070694923401,-0.3152504861354828,-0.05586561933159828,0.3818398416042328,0.5638607144355774,-0.21222727000713348,0.0003355706576257944,0.021290313452482224,-0.344928115606308,-0.11671516299247742,-0.4200056493282318,-0.09721564501523972,-0.5766002535820007,0.01635175570845604,-0.3421519100666046,-0.24258118867874146,-0.828204870223999,-0.9661551117897034,-0.6372451186180115,0.7101548314094543,0.5670866966247559,0.594866156578064,-0.4491807520389557,-0.6044476628303528,0.09634792059659958,-0.9274590015411377,-0.18189029395580292,0.9282577633857727,-0.14946286380290985,-0.6208810210227966,0.22282207012176514,-0.3940694034099579,-0.20892760157585144,-0.3850576877593994,0.2991672158241272,0.3209926187992096,-0.2264997363090515,-0.48791855573654175,0.4289122521877289,-0.24546697735786438,0.15932510793209076,-0.6614002585411072,0.2636284828186035,-0.337611585855484,0.18076235055923462,-0.00710932444781065,0.1448926478624344,-0.18322667479515076,0.0017170829232782125,0.708073079586029,0.2505970001220703,0.2851921021938324,0.21090318262577057,-0.5035148859024048,0.008862437680363655,0
00a9ea358c308781f4e715bdd4b1cdd3.atk,0.26671549677848816,1.3165627717971802,0.7181969285011292,-0.6960437893867493,0.18522502481937408,-1.5166233777999878,-0.6325918436050415,-0.011785605922341347,1.1389788389205933,1.0618335008621216,-1.5594635009765625,-0.12154890596866608,0.5518070459365845,0.6446453332901001,-0.5233833193778992,-0.6777535676956177,-0.5218978524208069,-0.9739177823066711,0.12711678445339203,1.352745771408081,0.3020235598087311,0.42465269565582275,-0.6739436984062195,-0.9709944128990173,-0.2948300242424011,-0.9475919008255005,0.41393500566482544,-2.0884480476379395,0.8137978315353394,-0.012948096729815006,-0.9129732847213745,0.4598180055618286,0.042145099490880966,0.9976692795753479,-1.0145539045333862,-1.6704057455062866,1.7184550762176514,-0.7849892973899841,-1.026757001876831,-1.1112288236618042,-0.5348519086837769,0.44515299797058105,0.10512953251600266,-0.18308089673519135,0.6210031509399414,0.11129916459321976,-1.244282841682434,0.027944056317210197,-0.1594819724559784,-0.5866913795471191,-0.8606586456298828,-0.04379137605428696,-0.04826704040169716,-0.11616780608892441,0.12238759547472,-0.34151914715766907,0.04359779879450798,-0.1423075795173645,-0.388765811920166,-0.18006479740142822,0.06851180642843246,-0.811360239982605,-1.3998931646347046,0.11187458038330078,0
00b0051fbcd9f28370c38f80dbbe3536.atk,0.3130744993686676,0.9095410704612732,0.5240356922149658,0.08225551247596741,0.07814264297485352,-0.6842455267906189,-0.4782399833202362,0.09911277145147324,0.5034034252166748,1.4100255966186523,-1.6415667533874512,0.4395856261253357,-0.18703553080558777,0.17664432525634766,0.663701593875885,1.1233487129211426,-1.1937259435653687,-0.6695854067802429,-0.3335106670856476,1.0133779048919678,-1.4068970680236816,-0.13864688575267792,-0.6078606843948364,-1.0846463441848755,-0.5667275786399841,-0.551896870136261,-1.8150405883789062,-1.319070816040039,0.5288238525390625,0.3884017765522003,0.9772611856460571,-0.4555608332157135,-0.5787333250045776,-0.8071616888046265,-0.7640720009803772,-0.6033209562301636,1.465484380722046,-1.0568523406982422,-0.4099375605583191,-0.06509783118963242,-1.382769227027893,0.36286264657974243,-0.2540754973888397,-0.6058469414710999,-0.3865439295768738,0.09653272479772568,-0.012820370495319366,0.20878423750400543,-0.6090518832206726,-0.3954832851886749,-0.10817024111747742,-0.7588886618614197,-0.7012996077537537,-0.7373042106628418,1.3008534908294678,-0.01902151107788086,-0.1387561559677124,0.7531915903091431,-0.03259054571390152,0.09588228911161423,-0.1296820193529129,0.6914503574371338,-1.2487800121307373,-0.04146552458405495,1
00bc589577f953535253e509577a388fccf370d420110c986fd05df9e43384dd.atk,0.09898566454648972,0.8065958023071289,0.25727781653404236,-0.19657638669013977,-0.6185868978500366,-0.27957862615585327,0.03302134573459625,-0.7988588809967041,0.29814866185188293,1.0159201622009277,-0.11561577022075653,0.388841450214386,0.5208863615989685,0.6447126269340515,-0.02474735863506794,0.24294055998325348,0.38070863485336304,-0.4598534405231476,-0.37659263610839844,-0.2397647500038147,0.19983994960784912,-0.22826720774173737,-0.6587754487991333,-0.4044328033924103,-0.04677508771419525,-1.0471136569976807,-1.4330806732177734,-0.9616299271583557,-0.1260363906621933,1.0866024494171143,0.7120131254196167,0.07370106130838394,-0.629732072353363,-0.23245027661323547,-0.6312856078147888,-0.15432028472423553,0.5218986868858337,0.08082699775695801,-0.33982691168785095,-0.3955777585506439,0.20346124470233917,0.2372967153787613,-0.7091700434684753,0.555684506893158,0.550524115562439,-0.515911340713501,-0.18146204948425293,0.1489868015050888,-0.520852267742157,0.7797014117240906,-0.488423228263855,0.18916934728622437,-0.34833142161369324,0.6703797578811646,0.2215256243944168,0.06125470995903015,0.5318055748939514,-0.6549065113067627,0.9798816442489624,-0.10440903902053833,-0.51739102602005,0.823502242565155,-0.5963117480278015,-0.19504235684871674,1
00bc7defa16eb3171966a8fb0e740750.atk,-0.11846447736024857,0.5515560507774353,0.3130563795566559,0.006650294177234173,-0.0490872897207737,-0.13484182953834534,-1.2040200233459473,-0.09613034874200821,0.8208039999008179,0.46996381878852844,-0.3487696945667267,0.06437523663043976,0.16141332685947418,0.5550450682640076,0.18185944855213165,0.28562211990356445,-0.21543169021606445,-0.7997507452964783,-0.19246806204319,0.4487318992614746,-0.4840899109840393,0.7325264811515808,0.08242737501859665,-1.4266893863677979,-0.30491626262664795,-0.6643675565719604,-1.2933138608932495,-1.0850317478179932,0.4970717430114746,0.15236125886440277,-0.012450885958969593,-0.338960200548172,-0.2681965231895447,0.15045477449893951,-1.203680396080017,-0.4749058485031128,0.5032196044921875,0.05437421053647995,-0.48562318086624146,-0.5793840885162354,0.07380316406488419,-0.5674124956130981,0.8731911182403564,0.4911220073699951,0.6013858318328857,-0.5097113251686096,-0.7785252332687378,-0.29504555463790894,-0.4915226697921753,0.11814694106578827,-0.3776713013648987,0.20680776238441467,0.11193053424358368,0.5430853366851807,0.35881108045578003,-0.9083485007286072,0.2030562460422516,0.43177735805511475,0.2837202250957489,0.2460622638463974,0.054083626717329025,0.5525045990943909,-0.5276361107826233,-0.16482669115066528,0
00f7992842c9a5fc64c4d9a10dafa933.atk,0.9100109338760376,0.9967582821846008,1.178882360458374,0.45616474747657776,0.0385424941778183,-0.3289656937122345,-0.39126482605934143,-0.042799390852451324,-0.04899916425347328,0.3604685962200165,-0.7679615020751953,0.2967519164085388,0.44916555285453796,0.6509560942649841,-0.35014256834983826,-0.35602840781211853,-0.4710892140865326,-0.8579536080360413,-0.7176692485809326,-0.20357421040534973,-0.05959052965044975,-0.022266944870352745,-0.12312609702348709,-0.5713474750518799,-0.5362501740455627,-0.8182514309883118,-0.6569063067436218,-1.4054107666015625,0.3750179708003998,0.01339698676019907,0.8467017412185669,-0.3747212290763855,-0.8473791480064392,0.5724530220031738,-1.3376896381378174,-0.6120617985725403,1.0444207191467285,-0.3326290249824524,-0.048207323998212814,-0.7857579588890076,-0.07644547522068024,-0.8129681348800659,0.14966392517089844,-0.15526466071605682,1.2308754920959473,-0.2394898235797882,-0.6043944954872131,-0.10697438567876816,-0.5525078177452087,0.08052004873752594,-0.9739810228347778,1.0129927396774292,-0.027712341398000717,0.22047074139118195,0.4024747610092163,-0.9060474634170532,-0.5063585638999939,0.2307831346988678,0.7331087589263916,-0.527128279209137,0.5542466640472412,-0.162107452750206,-0.6441181302070618,0.6139909029006958,0
00f810f33e36af6785dc62069bb596dcc6b754fcfa71d5bf26c1d93b391480f1.atk,0.28645169734954834,1.3116117715835571,1.721848726272583,-0.5818459987640381,-0.36830830574035645,1.1740586757659912,-1.3848121166229248,1.2901253700256348,1.8429914712905884,0.08790402859449387,0.2470516562461853,0.9687408208847046,0.6667063236236572,-0.1103675588965416,-0.2702586352825165,-0.5571271777153015,0.5123856067657471,-0.11680129915475845,-0.5562007427215576,-0.48573368787765503,-0.14441077411174774,-1.6749992370605469,0.7408497929573059,-0.7190753221511841,-0.32843017578125,-1.9131345748901367,-0.8589970469474792,-1.2265682220458984,2.0682249069213867,0.7876139879226685,1.1449061632156372,0.1954401135444641,-0.5542311668395996,-0.20663578808307648,0.5987080335617065,-0.28696221113204956,0.5481348633766174,0.1606542468070984,-0.48725172877311707,0.13842430710792542,-0.3452412784099579,-1.794605016708374,0.8031929731369019,-0.05719039961695671,-1.082219123840332,-1.0630513429641724,0.09500005096197128,-1.3784867525100708,0.5922420024871826,-0.7318407297134399,0.11919336766004562,-0.04205971583724022,0.7273492217063904,0.5585081577301025,-0.7709577083587646,1.4953142404556274,0.17942814528942108,-1.3416366577148438,-0.26811182498931885,-0.9974591732025146,-0.4930115342140198,2.094264268875122,0.6118965744972229,-1.0412354469299316,1
00f83a459e206283925ff0c2ac976d23.atk,-0.6772519946098328,0.4532224237918854,0.8270841240882874,-0.1921946257352829,-0.2685123085975647,0.04759922996163368,-0.5998842716217041,-0.2584185302257538,0.0030424685683101416,0.022830640897154808,-0.6675342321395874,0.9938944578170776,0.7279684543609619,0.27208274602890015,0.027949504554271698,-0.38859227299690247,-0.47432711720466614,-0.4894363284111023,-0.2770257890224457,0.08846891671419144,-0.061010248959064484,0.1965971440076828,-0.08870716392993927,-0.22084327042102814,-0.5551696419715881,-1.1020581722259521,-1.2877787351608276,-1.246893048286438,0.15427008271217346,0.22590389847755432,-0.30085498094558716,-0.10412579774856567,-0.0940704271197319,0.029871741309762,-1.1910187005996704,-0.06073090806603432,0.6587748527526855,-0.02050134539604187,-0.5833321809768677,-0.6485462784767151,0.4380800724029541,-0.30665355920791626,-0.21161407232284546,0.8208488821983337,0.5934587717056274,-0.5697675347328186,-1.2903090715408325,0.024065310135483742,-0.18756501376628876,0.4880237877368927,-0.42515164613723755,-0.858936607837677,0.05521397665143013,1.1097429990768433,0.011548181995749474,-0.3573014438152313,-0.03696831315755844,-0.5188769698143005,0.19191408157348633,0.6669091582298279,0.5339441895484924,0.64857417345047,-0.14923007786273956,0.056989386677742004,0
0103a496158a602a95f8a76dca9e7f20.atk,0.09964880347251892,0.3031318187713623,0.6371380090713501,-0.15134736895561218,0.369941383600235,-0.038272321224212646,-0.26871058344841003,-0.13306419551372528,-0.028639137744903564,0.47803565859794617,-0.4332018494606018,0.2284805327653885,0.3473029136657715,0.5045920014381409,-0.15475496649742126,-0.07365456223487854,-0.012169361114501953,-0.19129061698913574,0.036022864282131195,-0.09121020883321762,-0.24650460481643677,-0.4624531865119934,-0.16798679530620575,-0.43277668952941895,-0.13696222007274628,-0.5099156498908997,-0.5532723069190979,-0.3805854618549347,0.4520617127418518,0.3774771988391876,0.28571635484695435,0.10554379969835281,-0.3556016683578491,0.04868242144584656,-0.7968556880950928,-0.32237207889556885,0.8020684123039246,-0.19303904473781586,-0.236513152718544,0.01731877028942108,-0.1029014140367508,0.05893285572528839,-0.35703232884407043,-0.07437169551849365,-0.004460877273231745,-0.15590810775756836,-0.3614582419395447,0.2650364637374878,-0.3773338198661804,0.21553491055965424,-0.5208325982093811,0.1354914903640747,-0.3339603841304779,0.19560866057872772,0.03372699022293091,-0.14833222329616547,0.17176546156406403,-0.1885828822851181,0.506465494632721,-0.06533963978290558,0.09292212873697281,0.3180575966835022,-0.6059587597846985,-0.12226402759552002,0
010c7e0f88905809b59a3d8b9721e7e1.atk,-0.5156918168067932,0.3896616995334625,0.29472383856773376,-0.09202689677476883,-0.2640848457813263,-0.5389738082885742,-0.678250253200531,0.05804281681776047,0.3257584869861603,0.5136438608169556,-0.46894997358322144,0.6420789957046509,-0.04646174982190132,0.5441945791244507,0.05282779410481453,-0.42628809809684753,-0.06657447665929794,-0.20978280901908875,-0.4124637842178345,0.09491083770990372,-0.17674881219863892,-0.10981202870607376,0.19771747291088104,-0.8659012913703918,-0.3335297703742981,-0.7722684144973755,-1.0268694162368774,-1.1049084663391113,0.6889389157295227,0.28968653082847595,-0.33930331468582153,0.11132393777370453,-0.0858149453997612,0.29343605041503906,-0.8048750162124634,-0.20394176244735718,0.4408847391605377,0.2761847972869873,-0.5245981812477112,0.014110589399933815,0.015059171244502068,-0.5292670726776123,-0.6483188271522522,1.0082926750183105,0.38431528210639954,-0.49814602732658386,-0.7623432874679565,-0.10607154667377472,-0.11399432271718979,0.0999666377902031,0.11041207611560822,-0.04260366037487984,0.36654502153396606,0.5357704758644104,-0.39500242471694946,0.14546503126621246,0.3499715328216553,-0.2522749602794647,0.2957301139831543,0.26113346219062805,0.15039874613285065,0.6365370154380798,-0.5580281019210815,-0.29234743118286133,0
014cd58f9fe4febcfc159ca9b2253c65.atk,0.5127984881401062,0.6865667104721069,0.24271748960018158,-0.633396565914154,-0.10977011173963547,-0.7473688125610352,-0.17960549890995026,-0.18055292963981628,0.33457013964653015,1.1210088729858398,-1.1124579906463623,-0.06884200870990753,1.1667978763580322,0.02823133021593094,0.2350778877735138,0.40253546833992004,0.41691693663597107,-0.3607912063598633,-0.5669721961021423,-0.047608643770217896,0.5929188132286072,-0.025544438511133194,-0.7162454128265381,-0.44247034192085266,-0.118014395236969,0.21705058217048645,-0.6039440631866455,-1.0011062622070312,0.6231274008750916,0.7095882892608643,0.32174918055534363,-0.18553602695465088,-1.6991534233093262,-0.5330692529678345,-1.1217907667160034,-0.23147986829280853,1.2595744132995605,0.5749391317367554,-0.2502054274082184,-0.6099997758865356,-0.7020734548568726,0.41038447618484497,-0.16045457124710083,-0.005651636049151421,-0.024629388004541397,-0.2534245550632477,-0.5221114754676819,0.15931595861911774,-0.18541058897972107,0.44108203053474426,-0.33166709542274475,-0.7195823192596436,-0.10309533029794693,0.6781203746795654,-0.29913148283958435,-0.350086510181427,-0.07576176524162292,-0.2438846081495285,1.563211441040039,-0.19522570073604584,-0.914493978023529,0.17549742758274078,-0.31412360072135925,-0.44621050357818604,0
015a4e134d9c2b8caad45a6d4ba0d5e5.atk,0.7485272288322449,1.196915626525879,-0.35065165162086487,-0.19880978763103485,-0.2148832231760025,-0.36394262313842773,0.41907399892807007,-0.13812091946601868,-0.23488940298557281,0.733531653881073,-0.6081012487411499,-0.09058766067028046,0.7185682654380798,0.14598548412322998,0.3526400625705719,-0.8368223905563354,0.4460829496383667,-0.45478856563568115,-0.5177904963493347,0.8633290529251099,-0.6492512822151184,0.15189826488494873,-0.6780238151550293,0.03254968672990799,-0.9173780083656311,-0.5416131019592285,0.14416976273059845,-0.4428616464138031,0.01784623973071575,1.2529605627059937,1.1117122173309326,-0.5404066443443298,-0.986716091632843,-0.6789557337760925,-1.524734616279602,-0.20514093339443207,2.1809334754943848,0.06644391268491745,-0.77590012550354,0.18076886236667633,-0.6378271579742432,0.27738359570503235,-0.8217127323150635,0.2796154022216797,-0.2194501906633377,-0.08037208020687103,-0.13480213284492493,0.7850824594497681,-0.10911150276660919,-0.23808419704437256,-0.14089609682559967,0.07523642480373383,-0.3152066469192505,0.3720291256904602,0.01241474598646164,0.33039218187332153,-0.40646955370903015,-0.3547426164150238,0.7362667918205261,0.2535667419433594,-1.1647051572799683,0.43081045150756836,-0.4476030766963959,-0.8517367839813232,0
016755c0fcba2f1648f3d5d0b80000ad.atk,1.3874529600143433,1.0534876585006714,1.1588554382324219,0.6797443628311157,-0.3056396245956421,-0.17915156483650208,-1.8540714979171753,0.7040733695030212,-0.04940706491470337,0.36541783809661865,-1.0821216106414795,1.3577769994735718,-0.2531179189682007,0.7348366975784302,0.07568220049142838,-0.6165077090263367,-0.9096250534057617,-1.0344935655593872,-0.007595708593726158,-0.26121729612350464,-1.0135387182235718,0.342151939868927,-0.0998796820640564,-0.11497922241687775,-1.4043762683868408,-0.7409194707870483,-0.32177257537841797,-3.0350594520568848,0.46515077352523804,0.7303788661956787,0.4041638970375061,-0.6927934885025024,-1.0999914407730103,0.4388129711151123,-0.4904727637767792,-0.041267573833465576,1.5920859575271606,-1.1682006120681763,1.0931687355041504,-0.9590484499931335,0.019033821299672127,-0.697728157043457,-0.1383504569530487,-1.1708520650863647,1.176529884338379,0.31117862462997437,-1.1733200550079346,-1.4272552728652954,0.6945044994354248,0.5101369619369507,-0.9683241844177246,-0.08422321826219559,0.22652533650398254,0.6748417019844055,-0.01307805348187685,0.1598905771970749,-1.1996616125106812,0.21160365641117096,-0.16326890885829926,0.6556332111358643,0.7250065207481384,-1.1336098909378052,-0.900162935256958,0.5093650221824646,0
01b5254ff63474a2bec794e3cb7db0fd.atk,0.7779770493507385,1.383678674697876,0.4120945632457733,-0.018161844462156296,-0.21392765641212463,0.10912992060184479,-0.19218800961971283,-0.17878317832946777,0.40447694063186646,0.22029177844524384,-0.6114788055419922,0.5739606618881226,0.17406165599822998,0.911381185054779,-0.043363749980926514,-0.17121639847755432,0.13669231534004211,-0.08589964359998703,-1.0914171934127808,0.34377843141555786,-0.6256726384162903,0.12004260718822479,-0.2786939740180969,-0.23561109602451324,-0.8187747001647949,-0.33426937460899353,-0.9567473530769348,-1.1753454208374023,0.46157562732696533,0.45633357763290405,1.0214145183563232,-0.35335326194763184,-0.743924081325531,0.12720763683319092,-0.5078712701797485,-0.5117168426513672,1.092093586921692,-0.6948118209838867,-0.07737874239683151,0.13868309557437897,0.6794289350509644,-0.3139226734638214,0.20507091283798218,0.3083272874355316,0.7060216069221497,-0.8280905485153198,-0.4662122130393982,-0.5363754630088806,-0.3304589092731476,0.45495522022247314,0.04188418760895729,0.6873936653137207,-0.6090503931045532,0.05950367450714111,0.15970379114151,-0.5942855477333069,-0.4383503794670105,-0.29459163546562195,1.0358606576919556,-0.03780414164066315,-0.05767584219574928,0.34539535641670227,-1.2859688997268677,-0.4280221164226532,0
01f31dd888eb5dfd4cb515087215cfa6cabb4f21285121cd1d408f80f09ed8a0.atk,0.0719023048877716,0.8083087801933289,0.7181044220924377,-0.3866997957229614,0.11752949655056,-0.39885392785072327,-0.2725638747215271,-0.47238045930862427,0.18591326475143433,0.7883204817771912,-0.08811472356319427,-0.12518849968910217,0.51182621717453,0.7576634883880615,-0.24627339839935303,-0.04960028454661369,-0.14593735337257385,-0.009005417115986347,-0.3503355085849762,-0.44303977489471436,0.10218539834022522,-0.5284186601638794,0.13343404233455658,-0.38919124007225037,0.09278158843517303,-1.0521036386489868,-1.4705605506896973,-0.6846685409545898,0.34922128915786743,0.5649683475494385,0.7806134223937988,-0.26287952065467834,-0.2558992803096771,-0.14898167550563812,-0.6875395774841309,-0.21326126158237457,0.5663655400276184,0.017656860873103142,-0.9668501019477844,-0.1266939342021942,-0.2914153039455414,-0.12577266991138458,-0.687435507774353,0.32805135846138,0.3301311731338501,-0.3068162798881531,-0.6722752451896667,0.4838535189628601,-0.710128903388977,0.2815530300140381,-1.0611603260040283,0.8345403671264648,-0.40841883420944214,0.4705128073692322,0.15540632605552673,0.14231552183628082,0.05753151699900627,0.06809229403734207,0.674092173576355,0.22808335721492767,0.37520742416381836,0.6334862112998962,-0.29327893257141113,0.27519816160202026,1
01f9c8db52f8edb462478310cfed7a23.atk,-0.8677207231521606,-0.31006792187690735,1.3022024631500244,-0.10382139682769775,0.8065188527107239,0.05552351847290993,-0.8946884870529175,0.24358144402503967,0.12500891089439392,0.34452158212661743,0.08629719913005829,0.7911823391914368,1.1838010549545288,0.5240642428398132,-0.16472555696964264,0.1606667935848236,-1.1415526866912842,-0.45604634284973145,1.0706757307052612,0.018057366833090782,-0.6093407273292542,-0.3140714764595032,-0.8132120966911316,-1.0558098554611206,0.403310626745224,-1.0376461744308472,-0.848659336566925,-1.6861615180969238,1.0778491497039795,1.0991967916488647,-0.19167637825012207,0.8262223601341248,0.5043303370475769,-1.2106311321258545,-1.6299607753753662,-0.8133688569068909,0.691187858581543,-0.9193476438522339,0.0325864776968956,0.9041013717651367,0.4840202331542969,1.0110251903533936,-0.9861221313476562,-0.25337737798690796,-0.9645583629608154,-0.4631255567073822,-0.5531583428382874,0.9083449840545654,-0.3902246356010437,-0.5605177879333496,-1.4060875177383423,-0.5345678925514221,0.42811185121536255,0.7391425371170044,0.49110838770866394,0.390279620885849,-0.2689317762851715,-0.9817406535148621,0.20514826476573944,0.23034504055976868,0.2323216199874878,1.746221661567688,-0.3688100278377533,-0.283753901720047,0
0203086336705ff39a8ad808b948820f.atk,-0.1393541395664215,0.9634857177734375,-0.2036859691143036,0.7776799201965332,0.357522189617157,-0.270493745803833,0.1169271171092987,-0.3808916211128235,0.6881843209266663,-0.6206547617912292,-0.21614333987236023,0.480851411819458,0.7325705289840698,-0.28260499238967896,-0.41685324907302856,-0.35256722569465637,0.09014574438333511,-0.5804002285003662,0.2550801932811737,-0.0781267061829567,-0.9685840010643005,-0.42157280445098877,-0.17492571473121643,0.0005055080400779843,-0.3609277307987213,-1.0350269079208374,-1.4382437467575073,-1.542930006980896,0.5808435082435608,0.668878972530365,0.41175299882888794,-0.17399059236049652,-0.4027601480484009,0.25965675711631775,-1.3785450458526611,0.2752528190612793,0.3360641896724701,0.5919983386993408,-1.2568283081054688,0.9246222376823425,-0.29508650302886963,0.028930094093084335,-0.23547743260860443,0.48516011238098145,0.543182373046875,0.11013124138116837,-0.4869144558906555,-0.057398129254579544,0.2098429650068283,0.25721433758735657,-1.385349154472351,0.13143862783908844,-0.4200001657009125,-0.24775907397270203,-0.3696448802947998,0.5743392109870911,0.1811978965997696,0.11244811862707138,1.006518006324768,-0.5514769554138184,-0.12605248391628265,1.2200814485549927,-1.317577600479126,-1.1496295928955078,1
0217b9e6b7059ceb992561d086346272.atk,-0.03852011263370514,1.1944504976272583,0.5616879463195801,0.9928098917007446,0.1355079859495163,-0.03478675335645676,-0.20215286314487457,-0.9956039190292358,-0.6950711607933044,0.13819481432437897,-0.33273613452911377,1.119791030883789,0.8423376083374023,-0.21919400990009308,-0.6036384701728821,-0.5230775475502014,-0.09852264821529388,0.48918962478637695,1.4413169622421265,-1.0430034399032593,-0.6659901738166809,0.4693927466869354,0.31665003299713135,-0.7898468971252441,-0.5546697378158569,-0.9177067279815674,-1.9245859384536743,-0.8171164393424988,1.1050338745117188,1.22987699508667,0.2879890203475952,0.901500403881073,-1.4099386930465698,0.22224701941013336,-1.5212984085083008,-0.36319980025291443,-0.32626572251319885,1.2068753242492676,-1.3162801265716553,-0.7735496759414673,-1.2655426263809204,-0.8787375092506409,-1.9039806127548218,0.1779252588748932,-0.6351203918457031,0.27713248133659363,-0.29264476895332336,0.0135238291695714,0.3141084313392639,-0.8166510462760925,-0.8149808645248413,0.09524915367364883,-0.4299902617931366,0.4979443848133087,0.305126816034317,0.9507591128349304,0.17604286968708038,-0.5695575475692749,0.49554455280303955,-0.11678764969110489,-0.1560140699148178,0.5357064008712769,0.5861163139343262,-0.679286003112793,1
021992cfe8991d14135c0abc4eb01e6a.atk,-0.7965280413627625,-0.3817771375179291,1.2888433933258057,-0.06994090974330902,0.8477147817611694,-0.02645830623805523,-0.8736733198165894,0.24427436292171478,0.07410214841365814,0.2528195381164551,0.03475301340222359,0.8867785334587097,1.2523659467697144,0.5647175908088684,-0.3267071843147278,-0.05026967078447342,-1.1616979837417603,-0.5555930137634277,0.9516526460647583,0.16975894570350647,-0.5769532322883606,-0.2956015467643738,-0.7979639172554016,-1.046484351158142,0.3938990533351898,-0.9521693587303162,-0.8607041239738464,-1.6342142820358276,1.1120703220367432,1.0674002170562744,-0.10740051418542862,0.7852375507354736,0.5152681469917297,-1.1902893781661987,-1.6052080392837524,-0.7546124458312988,0.6586660742759705,-0.9526931643486023,0.05711210146546364,0.940828800201416,0.4628085494041443,0.9561353325843811,-0.968925952911377,-0.3421836197376251,-0.8683052062988281,-0.5844677090644836,-0.4665029048919678,0.9512547850608826,-0.39971116185188293,-0.7198807597160339,-1.4073983430862427,-0.6697943210601807,0.5188486576080322,0.7300723791122437,0.40381917357444763,0.5015779137611389,-0.21365031599998474,-0.9540224671363831,0.19308319687843323,0.23488585650920868,0.1949215978384018,1.822735071182251,-0.30299273133277893,-0.3191913962364197,0
021a31a260240bc7e857edcf3e8aee89e1efd2023d535270becc85ebd3deaf69.atk,0.3098994195461273,0.6866050958633423,0.27582305669784546,-0.21699975430965424,0.005316928029060364,-0.00863310694694519,-0.26162824034690857,-0.3508742153644562,0.26162609457969666,0.4719969928264618,-0.20731398463249207,0.2625720202922821,0.38537201285362244,0.5259313583374023,-0.2495538890361786,0.08686887472867966,0.19698944687843323,-0.5168842673301697,-0.38807204365730286,-0.2732841670513153,-0.3292008936405182,-0.4137851595878601,-0.12091242522001266,-0.08371002227067947,-0.4503496587276459,-1.138738989830017,-1.0960835218429565,-0.8430724143981934,0.5168227553367615,0.7722347974777222,0.6169794201850891,-0.4933036267757416,-0.5072476863861084,0.10606074333190918,-0.8898881077766418,-0.20616814494132996,0.8978960514068604,-0.14239750802516937,-0.3272964060306549,0.3439413011074066,-0.04651404544711113,-0.23798704147338867,-0.4443795680999756,0.5744858980178833,0.6223792433738708,-0.3446594178676605,-0.36940622329711914,0.3319307863712311,-0.18042097985744476,0.48732855916023254,-0.4127698540687561,0.08108623325824738,-0.5494400858879089,0.3267495036125183,0.04528243839740753,0.4270918667316437,-0.1394641250371933,-0.2665647566318512,0.552950918674469,0.0542687363922596,-0.078211709856987,0.4035853147506714,-0.6342986226081848,-0.10200200229883194,1
024c094fff1f93ff68512d86b07d4f33.atk,0.22503527998924255,0.6757684350013733,0.3406580686569214,-0.22889743745326996,-0.039533644914627075,-0.02826325036585331,-0.2596709430217743,-0.3863252103328705,0.24656830728054047,0.44561874866485596,-0.1873917430639267,0.31866011023521423,0.37641608715057373,0.5143235921859741,-0.23782867193222046,0.037983909249305725,0.16641300916671753,-0.4713742136955261,-0.42164352536201477,-0.25239941477775574,-0.385791152715683,-0.5062974095344543,-0.12193577736616135,-0.08043304830789566,-0.4030880033969879,-1.1760653257369995,-1.0419328212738037,-0.8017239570617676,0.5709594488143921,0.8937501907348633,0.6186505556106567,-0.5041118264198303,-0.5103653073310852,0.07981555163860321,-0.9223995208740234,-0.22434969246387482,0.9021492004394531,-0.12012993544340134,-0.32828718423843384,0.36663690209388733,-0.08984197676181793,-0.19150711596012115,-0.4859761893749237,0.5731770396232605,0.5751277804374695,-0.3310505151748657,-0.36255010962486267,0.31354930996894836,-0.12570051848888397,0.386384516954422,-0.4080042839050293,0.03376113995909691,-0.5078076720237732,0.3936074674129486,-0.06384140998125076,0.4604209363460541,-0.19416514039039612,-0.3482047915458679,0.5850465297698975,0.008959163911640644,-0.08152409642934799,0.38922393321990967,-0.6888560652732849,-0.15661495923995972,1
0257ff0237e869e4b31d18322ec19b90.atk,0.3421659767627716,0.7375254034996033,1.1988475322723389,0.20285852253437042,0.43807336688041687,-0.7660993933677673,-0.40460333228111267,0.41047224402427673,0.2659629285335541,-0.10980915278196335,-0.7319726943969727,0.6150279641151428,0.0945616215467453,-0.16500069200992584,-0.28125855326652527,-1.3021153211593628,-0.23589050769805908,-0.8570618629455566,0.408157080411911,0.13944141566753387,0.26484552025794983,-0.6670080423355103,-0.010449503548443317,-0.06891706585884094,-0.7740145325660706,-0.2318933755159378,-1.431676983833313,-1.2480661869049072,0.865199625492096,-0.09429227560758591,-0.1906493604183197,-0.14108845591545105,-0.835670530796051,0.36143770813941956,-0.8358123898506165,-0.3550276756286621,0.21166746318340302,0.497437447309494,0.12597613036632538,-0.11458593606948853,-0.15986208617687225,-0.6808850169181824,0.16930672526359558,0.28551673889160156,-0.22149069607257843,-0.6631801724433899,-0.7084500789642334,-0.07996731996536255,0.175850510597229,-0.6151635050773621,-0.04911636561155319,0.576266884803772,0.10443951934576035,0.7088271379470825,-0.36359643936157227,-0.49805501103401184,-1.1497310400009155,0.16808924078941345,1.116089940071106,-0.7327538728713989,-0.14900368452072144,0.3532813489437103,-0.385863721370697,0.021577583625912666,0
0270ca406e7b1241d8a4d37bf9306048d022bec82674caeabae010ec57a34c2a.atk,0.3356207311153412,0.5986454486846924,1.0321773290634155,0.39437398314476013,-1.0776540040969849,-0.5374639630317688,-0.7140524983406067,0.7773397564888,-0.32986390590667725,1.069496989250183,-0.05231858789920807,1.472277283668518,-0.021087083965539932,-0.7580069303512573,0.5835134983062744,-0.4382321536540985,-0.5327979922294617,0.760928213596344,-0.30494463443756104,0.5516896843910217,-0.5190383791923523,-1.2515028715133667,-0.18272413313388824,-0.016589250415563583,-0.3909110724925995,-0.8117565512657166,-0.7819898724555969,-1.1210463047027588,0.6138147711753845,0.858993649482727,-0.14609253406524658,0.09563370048999786,0.21687546372413635,0.048669636249542236,-1.0645884275436401,-0.3135834038257599,0.9875836372375488,-0.7739397883415222,-0.2959994077682495,-0.2871342897415161,-0.24805782735347748,-0.31732261180877686,0.0067110625095665455,0.4730374813079834,-0.6799727082252502,-0.171913743019104,-0.8947835564613342,0.5148836374282837,-0.36544641852378845,0.2437528669834137,-1.038191556930542,-0.19194453954696655,0.3214160203933716,-0.1125650480389595,0.2805526554584503,-0.3634730577468872,-0.7147536277770996,-0.06539573520421982,-0.15834978222846985,-0.1790500432252884,0.06761591881513596,0.7291286587715149,-1.1784262657165527,0.19385987520217896,1
0294b47d346de98e5ab02e7f3d88011b.atk,-0.5097739100456238,0.4029961824417114,0.2874760925769806,-0.07068139314651489,-0.2342287302017212,-0.5599782466888428,-0.6647013425827026,0.02698613330721855,0.3264397084712982,0.5456725358963013,-0.4341529309749603,0.6798615455627441,-0.038171909749507904,0.5380356907844543,0.08088896423578262,-0.45030373334884644,-0.039221540093421936,-0.21902483701705933,-0.36976414918899536,0.09816588461399078,-0.21497033536434174,-0.1383654922246933,0.19985710084438324,-0.8598533868789673,-0.3540152609348297,-0.7417693734169006,-1.0925002098083496,-1.0711307525634766,0.7121469974517822,0.37249836325645447,-0.3204360604286194,0.086394302546978,-0.0851556733250618,0.26948800683021545,-0.854487955570221,-0.21268336474895477,0.4340379536151886,0.2844776511192322,-0.58624666929245,0.030216386541724205,0.008430194109678268,-0.4828447699546814,-0.6793763041496277,0.9748000502586365,0.33931851387023926,-0.5302891135215759,-0.8351251482963562,-0.07869863510131836,-0.13073833286762238,0.05757671967148781,0.04603692889213562,-0.021949607878923416,0.3728104531764984,0.5486972332000732,-0.4122587740421295,0.15383033454418182,0.3403916358947754,-0.2927372455596924,0.2978680431842804,0.2992621660232544,0.09310808777809143,0.6616556644439697,-0.6040639877319336,-0.3202996850013733,0
0298ee122eddbbbd873ab6fd7f44b0cfcf319de1b6ea9aefd13acddb0cc8d22f.atk,0.38452109694480896,0.6755349040031433,0.9034633636474609,-0.6395137906074524,1.0634703636169434,-0.9234365224838257,-0.10176089406013489,-0.6396540999412537,0.23483484983444214,0.4457443058490753,0.5437430143356323,-0.33942726254463196,1.1674106121063232,0.8494090437889099,-0.6782857775688171,-1.517310619354248,0.007594841532409191,-0.4528205096721649,0.3175589144229889,-0.519598662853241,0.36886727809906006,-0.6764586567878723,-0.27670007944107056,-0.06074624881148338,-0.28418588638305664,-0.5893707275390625,-1.215712547302246,-1.1046745777130127,1.2465829849243164,0.49932998418807983,-0.0335659384727478,0.4755583107471466,-1.1098898649215698,-1.0383062362670898,-1.0862526893615723,-0.16969889402389526,0.11866932362318039,-0.7090860605239868,-1.0641871690750122,0.317241370677948,0.07160884886980057,-0.33400729298591614,0.2165321260690689,1.4304291009902954,0.515774667263031,-0.2723601460456848,-1.5433160066604614,0.7371500730514526,0.30810725688934326,0.12494606524705887,-0.9885944128036499,-0.7389276027679443,0.05281788110733032,-0.09324918687343597,-0.35266923904418945,0.17811597883701324,0.9711155891418457,-0.9910557866096497,0.8702260851860046,0.1595257967710495,-0.5586996078491211,1.075769066810608,0.7818433046340942,-1.109371304512024,1
029ddebabd5de3d9badb8225d5f16df724cd97040137a345d5bfe1b6ff439eb8.atk,0.2763061225414276,0.7130467295646667,0.2932605743408203,-0.19463087618350983,0.05691121518611908,-0.0229901522397995,-0.30539920926094055,-0.34520721435546875,0.32201942801475525,0.40049707889556885,-0.23766683042049408,0.26352670788764954,0.364271342754364,0.5138947367668152,-0.21022607386112213,0.08070197701454163,0.1759224683046341,-0.5023828744888306,-0.41184002161026,-0.22039398550987244,-0.33570608496665955,-0.47676852345466614,-0.17814072966575623,-0.041386693716049194,-0.594123363494873,-1.0763053894042969,-1.1063357591629028,-0.8625692129135132,0.4876822829246521,0.8279664516448975,0.6677846312522888,-0.6317137479782104,-0.5082153677940369,0.13514459133148193,-0.8754145503044128,-0.2334800809621811,0.9275931119918823,-0.05742686614394188,-0.3978317677974701,0.33713236451148987,-0.028780240565538406,-0.26457715034484863,-0.37946492433547974,0.5876292586326599,0.5479561686515808,-0.30304163694381714,-0.3483179807662964,0.34628525376319885,-0.18379151821136475,0.44068804383277893,-0.4725150465965271,0.16280090808868408,-0.5483436584472656,0.3266998827457428,-0.0005630082450807095,0.4528108239173889,-0.14150699973106384,-0.2264508157968521,0.580176830291748,0.13345341384410858,-0.07619302719831467,0.40018483996391296,-0.6849054098129272,-0.18637080490589142,1
02a43365da74f473ad0293dbe53b0d2bc85325a1d0061581bc22591af869384d.atk,0.26735344529151917,0.6593960523605347,0.37689724564552307,-0.15837787091732025,0.4139847755432129,-0.1571608930826187,-0.49659767746925354,-0.16239818930625916,0.2866053283214569,0.5092488527297974,-0.1756475418806076,-0.07142391055822372,0.3151663839817047,0.568809986114502,-0.12521207332611084,-0.01584486849606037,0.07775410264730453,-0.3736056685447693,-0.16899225115776062,-0.5669609904289246,-0.13458144664764404,-0.4503559470176697,0.11092855781316757,-0.40508049726486206,-0.34557783603668213,-0.7961329817771912,-0.8719712495803833,-0.6417421698570251,0.6908704042434692,0.5712770223617554,0.6949623823165894,-0.5310434699058533,-0.597855269908905,0.14403493702411652,-0.78270423412323,-0.10218396782875061,0.9467293620109558,-0.0888553112745285,-0.5367518067359924,0.29980871081352234,-0.5416147112846375,-0.20987078547477722,-0.22339777648448944,0.29513874650001526,0.26899877190589905,-0.24156616628170013,-0.28294214606285095,0.419622004032135,-0.27500012516975403,0.07663270831108093,-0.5963907837867737,0.2752070724964142,-0.2783413827419281,0.21055643260478973,0.028286591172218323,0.13732412457466125,-0.10067297518253326,0.02658040262758732,0.8750870823860168,0.23600275814533234,0.21029725670814514,0.22633688151836395,-0.5523297190666199,-0.11686687171459198,1
02b016d43b493b4c25bdd1bdba58c199bb43c764c0363e7ea4abe14ca71f6f02.atk,0.29427751898765564,-0.16583821177482605,0.6243898272514343,-0.013522726483643055,0.02305564098060131,-0.5185595750808716,-0.8122233152389526,0.2632487416267395,0.5077509880065918,0.8129065632820129,-0.4212780296802521,0.08009453117847443,0.40657100081443787,0.9043632745742798,0.25503313541412354,-0.046199630945920944,0.04842004179954529,-0.4398562014102936,-0.42640221118927,0.08980103582143784,-0.09264813363552094,0.2251804769039154,0.6434000730514526,-1.1888089179992676,-0.2804647386074066,-0.9671421647071838,-1.6045337915420532,-0.30976030230522156,0.8733808994293213,0.005648458376526833,0.3354262709617615,-0.8909152150154114,-0.7652535438537598,0.8156543970108032,-0.36018604040145874,-0.4222819209098816,0.2246599942445755,0.07403943687677383,0.1076938658952713,-0.19717290997505188,-0.1233910620212555,-1.0912244319915771,-0.018119901418685913,0.48450207710266113,0.19987906515598297,-0.2617984414100647,-0.8291268348693848,0.41477105021476746,-0.5236103534698486,-0.5120400190353394,-0.3141338527202606,0.12288715690374374,0.4092927575111389,0.3511762022972107,-0.24095100164413452,-0.1348000317811966,0.13576525449752808,0.5096174478530884,0.757290780544281,-0.13120360672473907,0.5467564463615417,0.41439223289489746,0.020163001492619514,-0.5101280808448792,1
02b8b49bc1c90ecde7d3dcef64525d9d.atk,-0.6662849187850952,0.49759480357170105,0.6520370244979858,-0.3833814263343811,1.1484490633010864,-0.17415787279605865,-0.8238720297813416,0.09818440675735474,0.34028008580207825,0.9942055940628052,-0.38265249133110046,0.6710286140441895,0.4545048773288727,0.6611918807029724,-0.0016502453945577145,-0.09559747576713562,-0.580292284488678,-0.0802839994430542,-0.4808739721775055,0.5107173919677734,-0.3755280375480652,0.20927803218364716,-0.9337695837020874,-1.1205753087997437,-0.7095373272895813,-1.3027030229568481,-0.6498233675956726,-0.8225560188293457,0.8985463380813599,0.6394997239112854,-0.26353180408477783,0.053115520626306534,-0.23102180659770966,-1.05241060256958,-0.9400656819343567,-0.46201634407043457,1.7217541933059692,-0.6701927185058594,0.5101577639579773,0.4205832779407501,-0.7580084204673767,0.4506652057170868,0.2351021021604538,0.08038933575153351,0.4867965877056122,0.1267152577638626,-0.1644172966480255,0.8969321250915527,0.36944422125816345,0.21459613740444183,0.061005376279354095,-0.4498850405216217,0.7575169801712036,0.4837402105331421,0.1728505790233612,-0.10625920444726944,0.1930534541606903,-0.7969034910202026,0.14244693517684937,0.44443419575691223,-0.1100224182009697,0.6382219195365906,-0.1683579832315445,-0.9354414343833923,0
02c5a1fbddf2defeb4aabe0e9465d5b8.atk,0.35921013355255127,0.7610267996788025,0.7094846963882446,-0.15165004134178162,-0.0887024849653244,0.12503430247306824,-0.38862699270248413,-0.04957682639360428,0.8640106320381165,0.2676313519477844,-0.47886309027671814,0.12185884267091751,0.19707034528255463,-0.0584697425365448,-0.15859201550483704,0.3540218770503998,0.1439346820116043,-0.8929758667945862,0.4624733030796051,0.6376156806945801,-1.0516176223754883,0.10495400428771973,-0.292096883058548,-1.1763153076171875,-0.9376065135002136,-1.0885818004608154,-1.3382943868637085,-1.6089195013046265,0.048174481838941574,1.4823095798492432,0.6612370014190674,-0.17726212739944458,0.43638280034065247,-0.3101995289325714,-1.4510551691055298,-0.9161038994789124,0.30321434140205383,-0.1774909496307373,-0.9625594019889832,-0.5296837091445923,0.48738324642181396,0.47251638770103455,0.5840733647346497,-0.19454951584339142,0.47346651554107666,-0.2498573511838913,-0.4528188109397888,-0.47076743841171265,-0.3963737487792969,0.25850987434387207,-0.3898630738258362,-0.0931132435798645,-1.109035611152649,-0.13912340998649597,0.6352432370185852,0.10437477380037308,-0.478824645280838,0.5208615064620972,1.5579702854156494,-0.20040759444236755,-0.9952747225761414,-0.19398459792137146,-1.0913769006729126,-0.32236719131469727,1
02e69f0cadaaf985ac1f7500135eb812.atk,0.43483036756515503,0.7604292631149292,0.14156998693943024,-0.5891726613044739,-0.06521612405776978,-0.6469311714172363,-0.1581788808107376,-0.1980985850095749,0.310820609331131,1.0586953163146973,-1.083668828010559,-0.03712643310427666,1.13606595993042,0.149385467171669,0.3701121211051941,0.4220251441001892,0.4137254059314728,-0.44156989455223083,-0.3790995180606842,-0.08670522272586823,0.6022055745124817,0.0038887476548552513,-0.601611316204071,-0.37661245465278625,-0.12461225688457489,0.28912729024887085,-0.5789331793785095,-1.0356942415237427,0.6270244717597961,0.700908899307251,0.31464019417762756,-0.30778393149375916,-1.7476201057434082,-0.6027538776397705,-1.1009889841079712,-0.22328931093215942,1.2705979347229004,0.5253864526748657,-0.17650312185287476,-0.6626024842262268,-0.6677797436714172,0.3261346220970154,-0.24542129039764404,0.07337024062871933,-0.007819114252924919,-0.18640752136707306,-0.4682340919971466,0.08427252620458603,-0.08428990840911865,0.572083055973053,-0.29766276478767395,-0.6795623898506165,-0.17317569255828857,0.6086101531982422,-0.2819671332836151,-0.25482943654060364,-0.006706311367452145,-0.15641501545906067,1.4382658004760742,-0.07404148578643799,-0.9237136840820312,0.044917937368154526,-0.3724200427532196,-0.43827110528945923,0
0305bf5007d568eacdf1920d26d62b50832367f3831f32dfc2317cbe720552af.atk,-0.6414147615432739,0.45773473381996155,1.2088382244110107,0.2168094664812088,-0.33884483575820923,0.2611252963542938,0.23306046426296234,-0.03317898139357567,0.97477787733078,-0.09282086044549942,-0.3861820697784424,0.9029903411865234,0.8828816413879395,-0.5509071946144104,0.4292683005332947,-1.5104893445968628,-0.13548032939434052,0.5085974931716919,-1.3298019170761108,-0.4030207097530365,-0.9362867474555969,-1.5950167179107666,1.1822694540023804,-1.0949980020523071,-1.8820993900299072,-0.6882830858230591,-1.6731542348861694,-1.548518419265747,-0.9274643659591675,0.5004725456237793,0.5560304522514343,-0.4745221436023712,0.39537250995635986,-0.6042122840881348,-0.16302330791950226,-0.4916583001613617,-0.030811354517936707,1.037580966949463,0.020161990076303482,0.289636492729187,-0.8171866536140442,-0.8011457920074463,-0.25132566690444946,0.39938658475875854,-0.1649027317762375,0.5480403900146484,0.6375299692153931,1.0704939365386963,-0.43031561374664307,-0.11866031587123871,-1.0144468545913696,0.8817760348320007,-0.020943405106663704,1.6770603656768799,0.18461985886096954,-0.15328456461429596,0.37362682819366455,-0.3773152232170105,0.8212890028953552,-0.07171004265546799,-0.8286991119384766,0.7733657956123352,-0.5161383748054504,-0.4689972996711731,1
030dda80984dee936c9a95be2b1e042d.atk,0.16033130884170532,0.853882908821106,0.9180108308792114,0.9086927771568298,0.7638447880744934,1.0176599025726318,-0.8200632929801941,0.4642743468284607,-0.2684343159198761,0.20680275559425354,-0.6530863642692566,1.235578179359436,1.256048560142517,0.4632074534893036,-0.08739947527647018,0.1722920536994934,-0.04195236414670944,-0.4787598252296448,-0.42351943254470825,-0.44843411445617676,-0.7574207782745361,0.17234329879283905,-0.1457730531692505,-1.2848457098007202,-0.18187279999256134,-1.1039259433746338,-0.4396880865097046,-0.6726036667823792,0.03619378060102463,0.9120097160339355,0.47801244258880615,0.12735792994499207,0.4175332188606262,0.21253915131092072,-1.2476751804351807,-0.5161315202713013,0.9221379160881042,-0.21577748656272888,-0.04092070832848549,-0.059821709990501404,-0.008698876947164536,0.7842052578926086,0.6219170689582825,-0.49948248267173767,0.3072079122066498,-0.29237261414527893,-0.16796396672725677,0.09533665329217911,-0.6866099238395691,-0.41607725620269775,-0.3452037274837494,0.29139944911003113,0.12055615335702896,0.1082824245095253,0.016016356647014618,-0.7035980224609375,0.039416421204805374,-0.3475601077079773,1.6987261772155762,0.23480124771595,0.24732494354248047,1.0182807445526123,-1.270263433456421,-0.8805845379829407,1
03500727e263ed0dcba38c811bcefb634386ca318396963fd8b94c5d7340745e.atk,0.4382112920284271,0.07143595814704895,0.7638704776763916,-0.052455008029937744,-0.14501816034317017,-0.28586897253990173,-0.41157472133636475,0.10038963705301285,-0.1182527244091034,0.9192315936088562,-0.3464180827140808,0.3345791697502136,0.6608917117118835,0.5040724277496338,0.3789515495300293,-0.3310173451900482,0.1291917860507965,-0.3349021375179291,-0.008475142531096935,0.1591823548078537,-0.42662104964256287,-0.01903473399579525,0.08277406543493271,-0.7020143270492554,-0.05526665970683098,-0.6200695633888245,-1.3223612308502197,-0.3878278434276581,0.5318987965583801,0.14947718381881714,0.8447334170341492,-0.33555328845977783,-0.7061695456504822,-0.010683389380574226,-0.17497143149375916,-0.31754350662231445,0.24208097159862518,0.18375921249389648,-0.5313622355461121,-0.24805030226707458,-0.08241774886846542,-0.4260178506374359,-0.5178865790367126,0.21455548703670502,-0.23475882411003113,-0.2611163556575775,-0.4516083300113678,0.0969250276684761,-0.5224601030349731,-0.4234820306301117,-0.4276312291622162,0.06345558166503906,0.32794156670570374,0.26682358980178833,0.13115407526493073,0.10509442538022995,0.3248835504055023,0.0829620435833931,0.5755215883255005,0.042682111263275146,0.015102116391062737,0.5893233418464661,-0.06347484141588211,-0.3007941246032715,1
03558eb84c094c91e6f551d419e23fa8.atk,-0.26069292426109314,1.1880836486816406,0.7097591757774353,-0.04306590184569359,-0.8825897574424744,-0.15062165260314941,-0.9157975316047668,-0.1934322565793991,0.8108171820640564,0.37148383259773254,-0.13062684237957,0.4898889362812042,0.30056631565093994,0.7236893773078918,0.1640101671218872,0.08572611212730408,-0.4031592011451721,-0.20167690515518188,-0.4087028503417969,-0.2570372223854065,0.4203627407550812,0.5088141560554504,0.22228972613811493,-0.1583062708377838,-0.37869885563850403,-0.8193167448043823,-1.6857686042785645,-0.7664476633071899,0.14764155447483063,0.7184342741966248,0.409903347492218,-0.28246432542800903,0.23089814186096191,0.23487967252731323,-0.6125233769416809,-0.05608157068490982,0.39852413535118103,0.26999521255493164,-0.35314223170280457,-0.8478814959526062,-0.5524179339408875,-0.33247488737106323,-0.002075362019240856,1.1418263912200928,0.5645154118537903,-0.42684805393218994,-0.7690503001213074,0.43898412585258484,-0.8378379344940186,-0.2524249255657196,-0.27085253596305847,0.3199741244316101,0.03742387890815735,0.9682510495185852,0.10467012226581573,-0.28823912143707275,0.3198161721229553,0.44903308153152466,1.0904384851455688,0.0529894158244133,0.8413320779800415,0.8244157433509827,-0.4995262622833252,-0.13137295842170715,1
037f8b076e62dc0edcfe2a3b3c7e88d495c0b2a7abe0ccfdc979c804306d954e.atk,1.2052439451217651,1.1422489881515503,0.7816644310951233,-0.1035018190741539,1.4158700704574585,0.3393966257572174,-1.3962653875350952,0.33020344376564026,0.37928953766822815,0.5574785470962524,0.06933610886335373,0.09075912833213806,1.4768173694610596,1.148949146270752,-0.7617179751396179,-0.9104124307632446,0.08970339596271515,-1.5543957948684692,-0.2087567299604416,1.3553086519241333,1.0154330730438232,-0.22973798215389252,-0.20807227492332458,-0.033940792083740234,-0.48477861285209656,-0.6256633996963501,-0.7094710469245911,-1.3306876420974731,0.1967637985944748,-0.1296515315771103,0.21331822872161865,-0.34385162591934204,-1.466048002243042,0.8006770610809326,-2.0668184757232666,-0.49030375480651855,0.9567165970802307,0.12083881348371506,0.5530232191085815,0.41730234026908875,-1.5210710763931274,0.015303964726626873,0.4466923773288727,-0.029111651703715324,0.6641051769256592,0.8100126385688782,-0.32681605219841003,-0.08101449906826019,0.19368122518062592,-0.025573192164301872,-0.7953061461448669,1.27324378490448,0.32262951135635376,0.8926118016242981,-0.7619938850402832,0.39517149329185486,0.04090041294693947,-0.862018346786499,-0.3414672911167145,-0.7911363840103149,-0.6891278028488159,0.3709903955459595,0.931492269039154,-0.9644685983657837,1
038a05dd288138664ad3115cd6ea099a.atk,0.12990376353263855,0.29351747035980225,0.6388329863548279,-0.1515599936246872,0.37573108077049255,-0.04122353345155716,-0.19234760105609894,-0.16529010236263275,0.012322247959673405,0.5066611766815186,-0.4529300332069397,0.20142512023448944,0.42471808195114136,0.5143390893936157,-0.1887684017419815,-0.10129611194133759,0.015729276463389397,-0.22625964879989624,0.022404996678233147,-0.09943097829818726,-0.24573826789855957,-0.4290047287940979,-0.22358331084251404,-0.4559735059738159,-0.08616694808006287,-0.48422741889953613,-0.5343136787414551,-0.3367807865142822,0.4572678506374359,0.3204505443572998,0.2942295968532562,0.1590646505355835,-0.39157357811927795,0.07829975336790085,-0.7433546185493469,-0.303190141916275,0.8230307698249817,-0.15923088788986206,-0.1988891363143921,0.03124958835542202,-0.09965457767248154,0.07242973893880844,-0.38190972805023193,-0.08428923040628433,-0.02912687323987484,-0.13780657947063446,-0.322738915681839,0.2725256085395813,-0.3861980736255646,0.2284187227487564,-0.5174821615219116,0.11877238750457764,-0.31333786249160767,0.17846113443374634,0.0488596074283123,-0.16546721756458282,0.23941366374492645,-0.1542036235332489,0.5524250864982605,-0.14678345620632172,0.08457601070404053,0.29467275738716125,-0.59538334608078,-0.13107329607009888,0
03a8ebc36e7581889b97185a9ea43135.atk,0.4992583394050598,1.1820685863494873,1.2059104442596436,0.05361064150929451,-0.3466590344905853,-0.5091792941093445,0.23961038887500763,-0.5690982937812805,0.946733295917511,1.056138515472412,-1.0332374572753906,-0.8530763387680054,0.7638201713562012,0.6699997782707214,0.06621979176998138,-0.4124215245246887,1.0702393054962158,-1.321578025817871,0.6334503889083862,1.5085339546203613,-0.39752641320228577,-0.39498817920684814,0.298300176858902,0.86151522397995,-0.2548309564590454,-0.8501588106155396,-0.8822706341743469,-1.3102182149887085,0.9254144430160522,0.07942984998226166,0.9443511366844177,-0.18674087524414062,-0.564314603805542,-0.5184223651885986,-1.0162965059280396,-0.7290856838226318,1.0591799020767212,-0.9433194994926453,-0.6736051440238953,0.21722492575645447,-0.10962381958961487,0.23588180541992188,-0.3850889205932617,0.974955677986145,0.18719807267189026,-0.8663632869720459,-0.3652539849281311,-0.1305030733346939,-0.23853465914726257,0.005106386728584766,-0.9147440791130066,-0.06392262876033783,-0.2671571969985962,0.2174656093120575,0.7735671997070312,0.5946101546287537,-0.6005515456199646,0.609150230884552,0.3091471791267395,-0.38510721921920776,-0.377739280462265,-0.47283560037612915,-0.5151283740997314,0.3350161910057068,1
03b3b43ca40f505de2f059d56477f15c.atk,-0.27418506145477295,0.33293697237968445,0.6340579390525818,-0.6041349768638611,0.10403191298246384,-0.04881338030099869,-1.0412505865097046,-0.17066290974617004,0.09706900268793106,0.5825235247612,-0.7791180610656738,0.7855703234672546,0.2420554906129837,0.6218459606170654,0.19250473380088806,0.09412025660276413,-0.06244152784347534,-0.7291874885559082,-0.03046281263232231,-0.2146354615688324,0.05477026849985123,0.3011632263660431,-0.3580385148525238,-0.7187160849571228,-0.25589513778686523,-0.3320346474647522,-0.7961897850036621,-0.7478256821632385,0.3562115728855133,0.7478041648864746,0.6110082268714905,-0.08016389608383179,-0.39001530408859253,0.2653590440750122,-0.7785652279853821,-0.12293358892202377,1.3222707509994507,0.5351743102073669,-0.3499799370765686,-0.6813074350357056,-0.3497922122478485,0.3372958302497864,-0.16434253752231598,0.47470515966415405,0.29924118518829346,-0.1209486797451973,-0.8002805709838867,0.21271203458309174,-0.7752429246902466,0.6735163331031799,-0.06302943080663681,-0.67645663022995,-0.2183094620704651,0.4428386986255646,-0.034014370292425156,-0.5166822671890259,0.7802295684814453,-0.140168696641922,0.9608912467956543,0.5571814775466919,0.4206744134426117,0.5449026823043823,-0.7726140022277832,-0.22236844897270203,0
03d1732d1b7d657b16f197a4d711a268.atk,0.01790926419198513,1.3352760076522827,0.78216153383255,-0.17197632789611816,-0.38424599170684814,-0.6074117422103882,-0.4508051872253418,-0.07312268763780594,1.0272976160049438,0.17523014545440674,-0.5688562393188477,0.01115223579108715,-0.2385624498128891,0.3489927053451538,-0.10718310624361038,-1.520213007926941,-0.8736364841461182,-0.7639086842536926,-0.8167425990104675,0.20254303514957428,-0.4164041578769684,0.17991356551647186,-0.2534625828266144,-1.0166577100753784,-0.4557512402534485,-0.13908131420612335,-0.8844034075737,-1.7332462072372437,0.9222955107688904,-0.4776131212711334,0.1169683188199997,0.4120219349861145,0.4203770160675049,0.09212810546159744,-1.0117225646972656,-0.3324896991252899,1.0503885746002197,0.9773264527320862,-1.3058335781097412,0.19501353800296783,-0.39663752913475037,-0.7704649567604065,0.17407023906707764,0.540263295173645,0.12819677591323853,-0.11523185670375824,-0.40634188055992126,0.07713311165571213,-0.0498332642018795,-1.3901677131652832,0.9649500250816345,0.024395138025283813,0.497576504945755,0.7251995801925659,-0.458625853061676,0.21175195276737213,0.2641274034976959,0.5564934015274048,0.8490901589393616,0.27250221371650696,-0.24763624370098114,0.7984821796417236,-0.9989017844200134,0.3566679060459137,0
0424586cc6ae1f3a30e811665fcc4b934fd7cc8a2b084934fbd1bcd1fd48df25.atk,0.39564844965934753,0.9996036291122437,0.5359495878219604,0.0348365493118763,-0.510811984539032,-0.008903136476874352,-0.5870898962020874,-0.5794358849525452,0.689235508441925,0.8226107358932495,-0.2419818639755249,0.25134289264678955,0.5754620432853699,0.502255380153656,0.06049461290240288,0.13203276693820953,-0.04862118512392044,-0.16980065405368805,-0.34443390369415283,-0.004187639337033033,0.08676744997501373,0.16540829837322235,-0.0010822617914527655,-0.5581511855125427,-0.2279786914587021,-0.723832905292511,-1.0395910739898682,-1.0893582105636597,0.10732566565275192,0.3305361568927765,0.894951343536377,-0.23293732106685638,-0.41150617599487305,0.08702906966209412,-0.35115012526512146,-0.4082663059234619,0.1889629364013672,0.03212970122694969,-0.4681152403354645,-0.5289371609687805,-0.4643148183822632,-0.048488225787878036,0.2500685751438141,0.22433394193649292,0.26204031705856323,-0.43332943320274353,-0.41938966512680054,-0.20168250799179077,-0.800624430179596,-0.24431906640529633,-0.7559618949890137,0.5933384299278259,0.05003155767917633,0.3811740577220917,0.3309929072856903,-0.35221007466316223,0.1383732557296753,0.37800997495651245,0.6834997534751892,-0.16508129239082336,-0.25949156284332275,0.6489371061325073,-0.5560881495475769,-0.09778578579425812,1
042eff9ecc94b96941f561fd4c727776ea51764ae8f6cbe7e2c5b9e2b9880c65.atk,0.3402479290962219,0.7351821660995483,0.3100804388523102,-0.2435416877269745,0.07734930515289307,-0.037070367485284805,-0.3060392439365387,-0.33596891164779663,0.2699018716812134,0.4043872356414795,-0.19554972648620605,0.2679281234741211,0.38784468173980713,0.5323424339294434,-0.194456085562706,0.1235780417919159,0.2466021478176117,-0.5142852663993835,-0.3545428514480591,-0.3059098422527313,-0.3256419003009796,-0.4163404107093811,-0.17345526814460754,-0.1415720134973526,-0.49119827151298523,-1.0898025035858154,-1.1194595098495483,-0.8660440444946289,0.5221028923988342,0.7908760905265808,0.667320728302002,-0.6236909031867981,-0.4508551061153412,0.11644378304481506,-0.9262068867683411,-0.26210591197013855,0.9070461988449097,-0.07108962535858154,-0.3430393636226654,0.407021164894104,-0.1817249357700348,-0.20037046074867249,-0.42855313420295715,0.48701855540275574,0.5472418069839478,-0.3244245946407318,-0.3529110848903656,0.3585132658481598,-0.24126002192497253,0.5088608860969543,-0.4910654127597809,0.1660694181919098,-0.5030623078346252,0.3621366024017334,-0.008725392632186413,0.3560603857040405,-0.1795377880334854,-0.2879742980003357,0.6628745198249817,0.08557701110839844,-0.07258126139640808,0.44225215911865234,-0.6629961729049683,-0.13279923796653748,1
0446ae8ec2d513bc52974a8231649b2c.atk,0.095168337225914,0.33220940828323364,0.6203797459602356,-0.1696118861436844,0.3702642321586609,-0.10209763050079346,-0.25464728474617004,-0.1477244794368744,0.03199150040745735,0.5010820627212524,-0.4147365391254425,0.2445925921201706,0.365113765001297,0.5203877091407776,-0.1486532986164093,-0.12172716856002808,0.003637859830632806,-0.22853490710258484,0.06948641687631607,-0.06226136162877083,-0.2214902937412262,-0.4713101089000702,-0.23142220079898834,-0.48352116346359253,-0.131880521774292,-0.4830950200557709,-0.5520848035812378,-0.3842712640762329,0.49447163939476013,0.367643803358078,0.2668997347354889,0.12163243442773819,-0.4729156792163849,0.08478113263845444,-0.7319409847259521,-0.32992449402809143,0.7737076878547668,-0.13021713495254517,-0.16880817711353302,-0.03265085443854332,-0.1064959168434143,0.06609487533569336,-0.3879741132259369,-0.07921456545591354,-0.023622971028089523,-0.12691529095172882,-0.3574736714363098,0.2280714511871338,-0.35248371958732605,0.23573064804077148,-0.5477830171585083,0.1538708508014679,-0.2807392477989197,0.21643571555614471,0.024064283818006516,-0.151250422000885,0.2009080946445465,-0.13327687978744507,0.5094571113586426,-0.11034654080867767,0.10106360167264938,0.260614275932312,-0.6048508286476135,-0.10722539573907852,0
044eaf948c12e75d6d92e9a8bbfd7cde.atk,-0.06838186085224152,0.5056982040405273,1.30125892162323,0.1676446497440338,0.35024699568748474,0.05285084247589111,0.131625235080719,0.6578673124313354,-0.46438050270080566,0.7271819710731506,-0.17502130568027496,-0.4083351790904999,1.164664387702942,0.04466870799660683,-0.5608242154121399,0.06794226914644241,-0.00948640238493681,-0.6179583668708801,0.11799488961696625,0.3487321436405182,0.13767966628074646,-0.4916170835494995,-0.10193788260221481,-0.9383758306503296,0.1711513251066208,-0.04817012697458267,-1.3066757917404175,-0.776271402835846,0.34020933508872986,1.1529802083969116,-0.010606378316879272,-0.016876474022865295,0.3950026333332062,-0.2515729069709778,-1.9025970697402954,-1.1889970302581787,0.6107834577560425,-0.474327027797699,-0.5064384937286377,0.012974129058420658,1.0224162340164185,-0.33953768014907837,-0.3863842189311981,0.5922296643257141,0.07590430974960327,-0.3246433734893799,-0.17471154034137726,-0.09256412088871002,-0.4600427448749542,-0.0803290456533432,-0.8826622366905212,0.28831467032432556,0.11675883829593658,0.6836437582969666,-0.18800140917301178,-0.254937082529068,-0.8659253120422363,0.22442831099033356,1.127415418624878,-0.9127990007400513,0.7180736064910889,-0.5116033554077148,-0.2590060234069824,-0.5810259580612183,0
047f4eddefef5fff57d5353583a520e29fb3c72236c9f7ef3e40548d50b682b9.atk,-0.4880879819393158,0.9795129299163818,0.6880709528923035,0.020562393590807915,0.19936713576316833,0.45219168066978455,0.3241526782512665,-0.551295280456543,0.681778609752655,0.37663355469703674,-1.3296092748641968,0.5680222511291504,1.1535937786102295,1.1819559335708618,0.3317176401615143,0.0929548591375351,1.087250828742981,-0.610103964805603,-0.7378965616226196,0.8261429071426392,-0.6116105318069458,0.2565860450267792,-0.13662917912006378,-0.21923163533210754,-0.09912852942943573,-0.32744771242141724,-1.6203395128250122,-0.552909255027771,1.2499666213989258,-0.5562148094177246,-0.25979793071746826,0.6830381751060486,-0.5767040252685547,1.266845464706421,-1.0372810363769531,-0.6854916214942932,0.1340932995080948,0.36441516876220703,0.028254514560103416,-0.2790091633796692,0.2581183612346649,-0.32426056265830994,-0.17487338185310364,0.4893621504306793,-0.40567317605018616,-0.24495549499988556,-1.169492483139038,0.016846081241965294,-1.0901838541030884,1.1921939849853516,-0.9072465896606445,-0.518305778503418,-0.15064933896064758,0.30659788846969604,-0.5229716300964355,-0.3213574290275574,0.9157842993736267,-0.44141823053359985,-0.10552248358726501,-0.723667323589325,0.43673989176750183,0.7149061560630798,-1.1884552240371704,-0.3632645010948181,1
04839c2d1f2245241a90f46cfc00ec83.atk,0.42609038949012756,0.4120961129665375,0.08290090411901474,-0.4001937508583069,0.12571309506893158,0.3637488782405853,-0.21706165373325348,-0.9745748043060303,0.6060359477996826,1.0911247730255127,-0.2596988379955292,-0.1058090329170227,0.844971776008606,0.5392821431159973,0.008131217211484909,-0.6694785952568054,0.5743677020072937,-0.22388550639152527,0.06660465896129608,-0.04833533242344856,-1.134212613105774,-0.11347173899412155,-0.20694196224212646,0.36360013484954834,0.7035772204399109,-0.7665233016014099,-1.3251620531082153,-1.1226636171340942,1.3253434896469116,0.6863099336624146,0.2004786878824234,-0.061276961117982864,-0.6700301766395569,-0.7652497887611389,-1.22475004196167,0.18300804495811462,0.9181554913520813,-0.10448436439037323,-0.5879326462745667,0.7375559210777283,0.6898812055587769,-0.32371801137924194,-0.034904222935438156,1.163172721862793,1.0009578466415405,0.890330970287323,-1.0445890426635742,0.2810062766075134,0.20815370976924896,-0.27716219425201416,-0.24710184335708618,0.2909153997898102,0.08345285058021545,0.03766839951276779,0.09828763455152512,0.21143487095832825,0.22541078925132751,-0.10854316502809525,0.6762689352035522,0.3614175617694855,-0.7860919833183289,1.0569883584976196,-0.8488695621490479,-0.7672197222709656,1
04d5eb75b08755ac462276e026f82ae2.atk,-0.049212921410799026,0.28535163402557373,-0.16654978692531586,1.3240034580230713,-1.1073929071426392,0.8967388868331909,-1.4547866582870483,-0.8109392523765564,-1.0760533809661865,0.626964807510376,-0.5845927596092224,0.010866830125451088,2.6570935249328613,0.23177488148212433,1.0370680093765259,-0.7232515215873718,-0.00039677234599366784,-0.31634876132011414,-0.9644263982772827,-0.3895265460014343,1.1460893154144287,-1.6945565938949585,0.3380974233150482,-0.011199075728654861,-1.6649205684661865,-0.4582477807998657,-1.6594433784484863,-0.6676769256591797,1.1850029230117798,0.04346880316734314,-0.34877896308898926,-0.6732510924339294,-1.203737497329712,-1.0256539583206177,-0.518066942691803,-0.8792575001716614,0.06829467415809631,-0.3817179203033447,-0.33233389258384705,0.11528035998344421,-0.7052240967750549,-1.3789992332458496,-0.6254176497459412,-0.09077970683574677,0.7043925523757935,1.0933723449707031,-0.4297705590724945,0.33476194739341736,-0.31796467304229736,-0.9329276084899902,-0.7081949710845947,0.3402400314807892,0.3714810013771057,0.6329387426376343,0.2760503888130188,1.219266414642334,-0.7495157718658447,-0.14690133929252625,-0.03082829713821411,-0.1149732768535614,-1.5548293590545654,-0.4358871579170227,-0.7518119215965271,-1.0961711406707764,1
04e05586764c4677b7deb5ace5ebca68a5801bdc6b05519cb8a04e145c5f21e8.atk,0.37730222940444946,-0.5415896773338318,0.9040036201477051,-0.1580672562122345,-0.5975721478462219,-0.7501164674758911,0.11465465277433395,1.4429670572280884,0.4822382926940918,0.8152530789375305,-1.3874624967575073,0.4475594162940979,1.3308689594268799,0.5092077851295471,-0.8443909287452698,-0.9482178688049316,0.09661155939102173,-1.1483712196350098,-0.8462362885475159,-0.6839641332626343,1.1810905933380127,-0.2469807267189026,-0.5410440564155579,-0.5474290251731873,1.0364017486572266,-1.9300776720046997,-1.1775827407836914,-2.693842649459839,0.9154602885246277,-1.2739636898040771,0.05672921612858772,0.3155170977115631,-0.9051515460014343,-0.051509808748960495,-2.0188090801239014,0.1568157970905304,0.2975602447986603,-0.887208878993988,0.4749366044998169,0.15857577323913574,1.3300445079803467,-1.297244668006897,0.12488149106502533,0.0448760911822319,0.44451799988746643,-0.44853249192237854,-0.7634900808334351,0.582981288433075,0.6824551820755005,0.9056394100189209,-0.5034599900245667,0.44992971420288086,1.1377065181732178,1.777320384979248,0.4220784306526184,-0.28901898860931396,-0.17613470554351807,-0.572501003742218,1.2513014078140259,-0.26440319418907166,0.110990971326828,0.24440838396549225,-1.4631744623184204,0.01418844610452652,1
04fbd14dfa4f56294f7643d1628febf0a9c17d246b017fe47a5851ac2f79f119.atk,0.3571570813655853,0.4391223192214966,1.3543752431869507,-0.6405134797096252,0.5429192185401917,-0.6857601404190063,-0.36477911472320557,-0.21130216121673584,0.4880825877189636,0.6826225519180298,-0.6622838973999023,0.3715159296989441,0.9092429876327515,0.573844313621521,-0.9944003820419312,-1.4982433319091797,-0.21413041651248932,-0.8412423729896545,0.33612802624702454,0.4519765079021454,0.17759649455547333,-0.06802839785814285,0.6483607888221741,0.6778061389923096,-0.1734471470117569,-0.9084670543670654,-0.6556013226509094,-1.2348723411560059,0.605976939201355,0.08653716742992401,0.587502658367157,0.9175586700439453,-1.1793080568313599,-0.3173838257789612,-1.6627633571624756,0.34457728266716003,0.8922063112258911,-0.05749252811074257,0.01172769907861948,-0.62778639793396,0.24353434145450592,-0.30914056301116943,-0.7158921957015991,0.9264674782752991,0.44383618235588074,0.7102778553962708,-1.9446054697036743,0.6849544644355774,0.11448495090007782,0.3124988377094269,-0.7535303831100464,0.1556415557861328,-0.5696830749511719,0.6136152148246765,0.3738898038864136,-0.09705613553524017,-0.024120956659317017,0.2058081179857254,0.18638022243976593,-0.49893537163734436,-0.7975437045097351,0.4235241115093231,0.19187259674072266,0.07332435995340347,1
05090bbf8550ecac2f846527456ba3de.atk,-0.8804107308387756,0.013370895758271217,0.7078102231025696,-0.10620865970849991,-0.25855040550231934,0.07767879962921143,-0.3182903826236725,-0.04094060882925987,-0.3296140134334564,0.956017017364502,-0.896794855594635,0.9461003541946411,0.18046317994594574,1.2036523818969727,-0.46325942873954773,-0.4155057370662689,0.17515839636325836,-0.08023182302713394,-0.21583141386508942,-0.440470814704895,-0.6915954351425171,-0.25901949405670166,0.5533666610717773,-1.3637913465499878,0.148007333278656,-1.0933783054351807,-1.192473292350769,-0.03530873730778694,1.3919076919555664,0.2987169921398163,0.14595207571983337,0.5221264362335205,-0.6314945220947266,0.7947357892990112,-0.5547298192977905,-0.36159226298332214,0.35186219215393066,0.6981847882270813,-0.7931522130966187,0.019880056381225586,-0.2055383026599884,-0.4038146734237671,-1.6652621030807495,0.5426947474479675,-0.44790118932724,-0.15280775725841522,-0.7414265275001526,0.6838160753250122,-0.4205469787120819,0.1697780191898346,-0.13861584663391113,-0.21628223359584808,0.14081162214279175,0.7474194765090942,-0.43204692006111145,0.2099417895078659,1.1483327150344849,-0.35928165912628174,0.21220934391021729,-0.051237139850854874,0.3392890691757202,0.6607109904289246,-0.6318694353103638,-0.309752494096756,0
0517bb401a73933dd3edc80e1d0c8d230002a6a03a635c56e29c7055fb57546d.atk,-0.17852504551410675,0.6806156635284424,0.9119846224784851,0.5838868021965027,-0.7471883296966553,-0.09632271528244019,-0.7680754065513611,0.008726127445697784,-1.190945029258728,0.3765816390514374,-0.2470969706773758,-0.07858521491289139,1.5886216163635254,-0.4519383907318115,0.7965015769004822,0.5887578129768372,-0.6821711659431458,-0.8109936118125916,1.276795506477356,0.07293731719255447,0.7650079131126404,-0.6921034455299377,1.0152868032455444,0.13477908074855804,-1.6497526168823242,-0.5312874913215637,-2.0010616779327393,-1.3557430505752563,0.7947155237197876,0.3706103265285492,-1.2146137952804565,-0.838289737701416,-1.8103554248809814,0.11364475637674332,-0.2721657156944275,-1.7722810506820679,0.26461681723594666,0.021956412121653557,-1.1184026002883911,0.7441449165344238,-0.10521753877401352,0.39930030703544617,-1.1997262239456177,0.04936878755688667,0.36124885082244873,0.9948940277099609,-0.8441427946090698,0.34257009625434875,-0.9036771655082703,-0.6790059208869934,-1.0021357536315918,0.47524672746658325,-0.5532347559928894,0.002852773992344737,-0.4233732223510742,0.24695934355258942,-0.12295074760913849,0.9180728197097778,-0.41702374815940857,-0.696707546710968,-1.110356330871582,0.17406520247459412,-0.4155987501144409,-0.8012074828147888,1
052055c5202730d16d4117083db7a74c.atk,-0.7922016978263855,1.180912733078003,0.43763288855552673,-0.03175177425146103,-0.6202408671379089,-0.6340631246566772,-0.7180532217025757,-0.12232024222612381,-0.07241710275411606,0.4280773103237152,-0.3829866349697113,0.296977162361145,0.21769371628761292,0.426651269197464,0.4178062677383423,-0.15596431493759155,-0.7497057914733887,-0.7660428881645203,-0.25072070956230164,0.4477323591709137,-0.6068617701530457,0.42629700899124146,-0.7094894051551819,-0.1280265897512436,-0.38127845525741577,-0.8492471575737,-0.9419434070587158,-1.1234447956085205,0.3938315808773041,-0.0005109469639137387,-0.31134745478630066,-0.2978869378566742,0.3076566755771637,-0.7324061989784241,-1.0302836894989014,-0.1708047240972519,1.0769942998886108,0.11686128377914429,-0.7849783897399902,-0.3986979126930237,-0.15053194761276245,-0.20077399909496307,-0.6319646239280701,1.15900719165802,0.12178046256303787,-0.15440425276756287,-0.548168420791626,0.7564332485198975,-0.1049855649471283,-0.2278538942337036,-0.10292281955480576,-0.48102134466171265,0.47648754715919495,1.141727089881897,0.3345959782600403,0.20492668449878693,-0.004307415336370468,-0.32481497526168823,0.06799764186143875,0.17493484914302826,0.41286349296569824,0.3662271201610565,-0.4628855884075165,0.06396592408418655,0
052db9b2580e25e314958e3262951af2.atk,0.7285449504852295,0.12362246960401535,0.7769067883491516,-0.014178522862493992,-0.2654880881309509,0.15448600053787231,-0.6171851754188538,-0.5832392573356628,0.5406598448753357,0.4902462363243103,-0.63710618019104,0.05902378261089325,0.47064200043678284,1.0040667057037354,0.13723361492156982,-1.2032650709152222,0.13976110517978668,-0.0533694289624691,-0.4041998088359833,-0.21996530890464783,-0.19382402300834656,-0.6499608159065247,0.26600149273872375,-0.33761849999427795,-0.5692058205604553,-0.8292496204376221,-0.1944779008626938,-0.6111759543418884,0.4765351414680481,1.4257317781448364,-0.024767518043518066,0.35048362612724304,-0.2703506052494049,-0.32222780585289,-1.137527346611023,-0.1503991037607193,-0.7330454587936401,-0.4059271812438965,-0.41705557703971863,-1.3409672975540161,1.03074049949646,0.13509756326675415,-0.286185085773468,0.43589428067207336,-0.6709826588630676,-0.607507050037384,-1.696520447731018,-0.14973804354667664,-0.09846679121255875,-1.3897547721862793,-0.8672223091125488,0.5183725357055664,-0.10340071469545364,1.699712872505188,-0.9830747842788696,0.2870923578739166,-0.43324315547943115,-0.9122573733329773,0.880564272403717,0.8427708745002747,-0.32700780034065247,-0.4094538688659668,-0.8453931212425232,-0.48512884974479675,1
05b5d3db104b05d69d09babb02922586b8fd29cd3d24c9779f371866d40454a5.atk,0.37723854184150696,1.054700255393982,0.41919174790382385,-0.13352243602275848,-0.23543167114257812,-0.34363609552383423,-0.5521798133850098,-0.5721251964569092,0.5530150532722473,0.8388921022415161,-0.12713010609149933,-0.20217487215995789,0.5143136978149414,0.423312246799469,-0.06524863839149475,0.13941031694412231,-0.16887634992599487,-0.12701855599880219,-0.4732274115085602,-0.10988228023052216,-0.06601322442293167,-0.1604139357805252,0.15528421103954315,-0.5032572746276855,-0.12039881199598312,-1.0186489820480347,-1.4222488403320312,-1.1878509521484375,0.3439326584339142,0.32143643498420715,1.0094443559646606,-0.7672607898712158,-0.38833001255989075,0.05506950244307518,-0.42399871349334717,-0.33799344301223755,0.15622073411941528,0.03729981929063797,-0.8243488073348999,-0.1666259616613388,-0.41446322202682495,-0.45816507935523987,0.049187012016773224,0.5446606278419495,0.43516191840171814,-0.49620136618614197,-0.6072376370429993,0.0389578752219677,-0.6506686210632324,-0.10987123847007751,-1.0738149881362915,0.974818766117096,-0.18630866706371307,0.29091429710388184,0.30240193009376526,-0.07325366884469986,-0.25536370277404785,0.4418046772480011,0.5527545809745789,0.11265183240175247,0.05329505354166031,0.5032441020011902,-0.17602193355560303,0.3045751750469208,1
05bed5476fa174c7aef2eaf54f0ab27f6a39a2af1d7ed53357ccae68851a331c.atk,0.09016010165214539,0.7673130631446838,0.6446753144264221,-0.1170404702425003,-0.5576664805412292,-0.2945832312107086,-0.48956558108329773,-0.4453992545604706,0.20964287221431732,0.8308499455451965,-0.1895247846841812,0.309909462928772,0.725014865398407,0.5421338677406311,0.17130541801452637,-0.008040975779294968,-0.17067497968673706,0.08083013445138931,-0.2439374178647995,0.019450562074780464,0.1781434267759323,0.0012118392623960972,0.10286202281713486,-0.4298735558986664,0.09896650165319443,-0.7599616646766663,-1.1820213794708252,-0.9239893555641174,0.03176920488476753,0.542536735534668,0.5546471476554871,0.15265609323978424,-0.21512170135974884,-0.2273014783859253,-0.5242965817451477,-0.22676649689674377,0.18849818408489227,0.051557209342718124,-0.7560620903968811,-0.6937259435653687,-0.08681096881628036,-0.03689923882484436,-0.38609710335731506,0.307278573513031,0.061455320566892624,-0.330359548330307,-0.6426728367805481,0.06893697381019592,-0.7649519443511963,-0.03037908300757408,-0.6833523511886597,0.43577465415000916,0.002572863595560193,0.5829137563705444,0.13528595864772797,-0.08015825599431992,0.18985947966575623,0.05961671471595764,0.487142413854599,0.14655578136444092,0.04465635493397713,0.7385660409927368,-0.32504788041114807,0.10984478145837784,1
05e158f29e1157c48efa59c497545aab.atk,0.4667213559150696,0.6001707315444946,1.0809199810028076,0.4205347001552582,-1.0895121097564697,-0.5220523476600647,-0.7231030464172363,0.7484534978866577,-0.2751428186893463,1.107679843902588,-0.09530117362737656,1.494375467300415,-0.11733195930719376,-0.8353366255760193,0.5482504367828369,-0.5072363018989563,-0.5196580290794373,0.7426818013191223,-0.3251824676990509,0.5635733008384705,-0.5282837748527527,-1.2761493921279907,-0.11558718234300613,-0.05921299383044243,-0.45749831199645996,-0.8463774919509888,-0.7163381576538086,-1.0986638069152832,0.6207608580589294,0.9039109945297241,-0.07138773798942566,0.12480439990758896,0.24653790891170502,0.058835338801145554,-1.0336120128631592,-0.2827916443347931,1.009122610092163,-0.7250033020973206,-0.27501916885375977,-0.381633460521698,-0.3027404248714447,-0.19999217987060547,0.034847863018512726,0.5997716784477234,-0.6149559617042542,-0.09793715924024582,-0.8198691010475159,0.40728098154067993,-0.4088065028190613,0.21515126526355743,-0.9818610548973083,-0.20157867670059204,0.3010176122188568,-0.1019187718629837,0.2926514744758606,-0.2881488502025604,-0.638538122177124,-0.043570633977651596,-0.15292048454284668,-0.2526780962944031,0.12678614258766174,0.7931904196739197,-1.189618706703186,0.21229997277259827,1
05e3a3b1e83133cef70b5137c5ec8ac6a8c8ecbf782e2bf0b670d1c232927faf.atk,0.2269677072763443,0.6795351505279541,0.4221545457839966,-0.1264779418706894,0.48386436700820923,-0.17377346754074097,-0.4441834092140198,-0.16461874544620514,0.26215142011642456,0.49503767490386963,-0.25660738348960876,-0.03433917835354805,0.3403049111366272,0.5574396848678589,-0.1768690049648285,-0.09565525501966476,0.015324318781495094,-0.3508845567703247,-0.19352571666240692,-0.4748315215110779,-0.1793607622385025,-0.575472354888916,0.04717502370476723,-0.31474846601486206,-0.3000757396221161,-0.8591934442520142,-0.9001246690750122,-0.6665588021278381,0.7300781011581421,0.5231919884681702,0.6439859867095947,-0.5759842991828918,-0.6204224228858948,0.1329040229320526,-0.896298885345459,-0.18930913507938385,0.9896508455276489,-0.10549798607826233,-0.5273696184158325,0.26056718826293945,-0.41936415433883667,-0.3096241354942322,-0.31765016913414,0.23973572254180908,0.3026476204395294,-0.2661641240119934,-0.3453223407268524,0.44463929533958435,-0.24404115974903107,-0.0035494782496243715,-0.7102411985397339,0.34891819953918457,-0.2913694679737091,0.17864349484443665,-0.04285075142979622,0.17151181399822235,-0.09557820111513138,0.030641954392194748,0.7398419380187988,0.186024472117424,0.25282731652259827,0.12960848212242126,-0.5173857808113098,-0.033941544592380524,1
061ca10415efe1eda68a333a45e7c441.atk,0.77485591173172,0.7052139043807983,-0.1332583725452423,-0.13688097894191742,-0.584753155708313,0.14943687617778778,-0.7226386070251465,-0.3130316734313965,0.9130599498748779,0.14520664513111115,0.4166794419288635,-0.3219242990016937,0.5472469329833984,-0.3176920711994171,-0.06488057225942612,0.30869966745376587,0.7406524419784546,-0.23847737908363342,-0.0036291468422859907,-0.6711429357528687,-0.638604998588562,0.38853219151496887,-0.5810273885726929,-1.7175039052963257,-1.2306822538375854,-1.1224066019058228,-1.4069997072219849,-0.832455575466156,0.7067475318908691,-0.03420715034008026,0.22732923924922943,0.3249034583568573,-0.09741248935461044,0.45749157667160034,-0.598823606967926,-1.1161346435546875,0.26793256402015686,0.1615239679813385,-0.9650502800941467,-0.27950432896614075,0.2983662486076355,0.008776003494858742,0.3244687020778656,1.3291008472442627,0.035270437598228455,-0.7795034050941467,-0.8520527482032776,0.695478081703186,-0.42705148458480835,0.0812583640217781,0.15255464613437653,-1.2944843769073486,-0.269065260887146,0.7243296504020691,-0.039421938359737396,0.36101964116096497,0.22778469324111938,0.4270731508731842,0.3460111618041992,-0.36622652411460876,-0.6034395098686218,-0.9252961277961731,-0.5893728137016296,0.018468204885721207,1
063d056cdf0377ab9f30e372b765ebd0f79bd00ac13d6b3e7a58751756edc8ae.atk,0.3150396943092346,1.0543488264083862,0.4762123227119446,0.04539131373167038,-0.4978029429912567,0.036409419029951096,-0.5064494609832764,-0.627453088760376,0.6640902161598206,0.8724040985107422,-0.2654300034046173,0.21771080791950226,0.7086086869239807,0.43474331498146057,0.02132336236536503,0.12138189375400543,-0.055816181004047394,-0.14790984988212585,-0.42777350544929504,-0.043730396777391434,0.01657920889556408,0.22439473867416382,0.05046847090125084,-0.6599116921424866,-0.1660851538181305,-0.8050593137741089,-1.0137428045272827,-1.130726933479309,0.13518720865249634,0.276856392621994,0.9259150624275208,-0.14858417212963104,-0.4445987939834595,0.1435897797346115,-0.380758672952652,-0.43067318201065063,0.222457617521286,0.05587245151400566,-0.5118687748908997,-0.5048205852508545,-0.4173075556755066,-0.11675166338682175,0.266074001789093,0.30893516540527344,0.2797558009624481,-0.4134708046913147,-0.3838830590248108,-0.20692138373851776,-0.8361562490463257,-0.1798178255558014,-0.720887303352356,0.6384322643280029,-0.04608485847711563,0.3321530520915985,0.3461865484714508,-0.32491591572761536,0.1515970379114151,0.4497910439968109,0.6918925046920776,-0.24386851489543915,-0.23761168122291565,0.6014589071273804,-0.5292159914970398,-0.0042909313924610615,1
067e89549753b1db40973cb43af9ec7e.atk,0.14749568700790405,0.2474382221698761,0.47338342666625977,0.427268385887146,0.5921027660369873,-0.6815841197967529,-0.5840070247650146,-0.13559839129447937,0.04331599548459053,1.893641471862793,-0.2565300464630127,-0.5043741464614868,1.6147029399871826,0.9271906018257141,-0.29041218757629395,0.35474565625190735,-0.13826732337474823,-0.545353353023529,0.37469449639320374,0.8718450665473938,-0.606107771396637,0.06319895386695862,-0.2568647861480713,-0.17010259628295898,0.1713201254606247,-0.6392990946769714,-1.9974275827407837,-1.1551035642623901,0.6250908970832825,1.678733468055725,0.4561326205730438,0.16546064615249634,-0.49886175990104675,-0.47485822439193726,-2.037079095840454,0.262903094291687,1.3822590112686157,-0.8571874499320984,1.4670062065124512,0.5014517903327942,-0.4033156931400299,-0.2782839238643646,-0.2555096447467804,0.8976970314979553,0.752236545085907,-0.7171013951301575,-0.6009749174118042,1.073641061782837,0.28184089064598083,-1.0814058780670166,-0.0883461982011795,0.25313007831573486,-0.4499819874763489,0.3103780448436737,0.9584314227104187,0.09724714607000351,0.195291206240654,0.26655349135398865,-1.1392090320587158,-0.4609033763408661,-1.070638656616211,0.9261605739593506,-0.6279208660125732,-1.51949942111969,1
06ff1b8d83d0918ae6c5cf9819b05803.atk,0.08798923343420029,0.2916408181190491,0.6698337197303772,-0.15004825592041016,0.37731701135635376,-0.026343759149312973,-0.24284903705120087,-0.14381934702396393,-0.007913238368928432,0.4764910042285919,-0.44144487380981445,0.2728089988231659,0.37011009454727173,0.4775274395942688,-0.17420624196529388,-0.15375426411628723,0.013756819069385529,-0.20878882706165314,0.03920689597725868,-0.11791303008794785,-0.2438756674528122,-0.48938125371932983,-0.18542945384979248,-0.4443584978580475,-0.15172897279262543,-0.4924679100513458,-0.5104383826255798,-0.37490445375442505,0.49212390184402466,0.30631396174430847,0.2422173023223877,0.1729489415884018,-0.4471231997013092,0.049919046461582184,-0.6945592164993286,-0.3117098808288574,0.7611659169197083,-0.12566082179546356,-0.1910630464553833,0.04952123016119003,-0.08788056671619415,0.07613291591405869,-0.3835296928882599,-0.07066111266613007,-0.03382483869791031,-0.14290326833724976,-0.3236634135246277,0.2345830500125885,-0.3652859032154083,0.22517621517181396,-0.49158814549446106,0.1382702738046646,-0.28034698963165283,0.22677987813949585,0.042370688170194626,-0.13343453407287598,0.22291341423988342,-0.20100854337215424,0.5477452278137207,-0.14504656195640564,0.04487927630543709,0.25112003087997437,-0.5902995467185974,-0.14989103376865387,0
0726b7af85d30ddbf726ec1eed8756a4.atk,0.581717312335968,2.3289177417755127,0.5885186195373535,0.17773962020874023,0.6982305645942688,0.49533745646476746,-1.0153275728225708,0.15035462379455566,1.1429518461227417,-0.696219265460968,-0.9058533310890198,0.6896142959594727,0.5225414633750916,0.9037800431251526,-0.14187347888946533,-0.28786495327949524,0.010260900482535362,0.1904565393924713,-0.5288910865783691,0.5256127715110779,0.17627768218517303,-1.0120149850845337,-0.398519903421402,-0.8935337662696838,-1.1213772296905518,0.39368507266044617,-0.430027574300766,-1.363292932510376,0.9288081526756287,0.38854077458381653,0.4238930940628052,-0.25037458539009094,-0.9432066679000854,0.4459246098995209,-1.3190785646438599,-0.9528089761734009,1.0062847137451172,-0.3929727077484131,0.08276621997356415,-0.4534953832626343,0.10292467474937439,-0.04433709383010864,0.9989908337593079,-0.1864893138408661,0.6242064833641052,-0.775902271270752,-0.5395459532737732,-1.000683069229126,0.1736176609992981,-0.5675360560417175,-0.9550274610519409,0.4238987863063812,-0.4017994999885559,-0.026002857834100723,-1.256798505783081,-0.20303834974765778,-0.2768060863018036,1.1893998384475708,1.486818552017212,-0.29117459058761597,-0.11558948457241058,0.40740513801574707,-1.171515703201294,-0.8769485354423523,0
07288d85337160ff953f49d2d949a556a10bce792649211715caa785ae1ff7c8.atk,0.8133366107940674,1.3272842168807983,0.3523530066013336,0.2871837615966797,0.359579473733902,-0.14748714864253998,-0.39974188804626465,0.6757189035415649,-0.3504336178302765,1.4070944786071777,-0.7320868372917175,0.5900630354881287,-1.569351315498352,-1.1837215423583984,0.3083440959453583,0.49671733379364014,-0.3201773166656494,-0.7019925713539124,0.5949469804763794,0.001132761244662106,-0.45271673798561096,-0.5697975158691406,0.7646886706352234,-1.978346824645996,-1.307759404182434,-1.1079941987991333,-0.9981056451797485,-1.2558847665786743,0.6607342958450317,0.727504551410675,0.054293569177389145,-0.7272233963012695,-0.21246132254600525,-0.8704654574394226,-1.3746693134307861,-0.9620805382728577,0.900573194026947,0.8679008483886719,-0.6910035610198975,-0.9649981260299683,0.06012490391731262,-1.3532745838165283,-1.1434437036514282,0.5049282312393188,-1.0617735385894775,-0.4375177025794983,-1.2999190092086792,-0.08603481948375702,-0.2920469641685486,-1.2640862464904785,-1.5554372072219849,-0.37594330310821533,-0.5984947085380554,-0.027996128425002098,-0.6898519396781921,0.056525424122810364,0.10832877457141876,0.4950680434703827,-1.1299875974655151,-0.8555809259414673,-0.613795280456543,0.6013364791870117,1.0362647771835327,-0.5201892852783203,1
07847630596c7a55101a80f26819d93d.atk,0.8509733080863953,0.9087036848068237,0.47406819462776184,0.13812194764614105,-0.3322606682777405,0.4927334785461426,0.10705441981554031,0.0040221563540399075,0.14308877289295197,0.2775144577026367,-0.5539448261260986,0.623175859451294,0.6930103898048401,0.28048285841941833,-0.03884175419807434,-0.3422231674194336,0.7461709380149841,-1.5974526405334473,0.10041332989931107,-0.37510621547698975,-0.3051716387271881,0.10482864826917648,-0.7961089611053467,-0.21580921113491058,0.7049086689949036,-0.9014788866043091,-1.1987143754959106,-1.487230896949768,-0.046376414597034454,0.4304330348968506,0.34618765115737915,-0.6823247075080872,0.16110950708389282,0.3834267258644104,-1.614500880241394,-1.493992567062378,1.1997261047363281,-0.5516983866691589,-1.2796669006347656,0.6047391295433044,0.7514907717704773,-0.6153231859207153,-0.18405838310718536,1.8572112321853638,0.887368381023407,-1.0101898908615112,-0.7347691059112549,-0.8059716820716858,-0.5070183873176575,0.8540154099464417,-0.627456784248352,0.966182291507721,0.27276286482810974,0.3781011700630188,0.3104669451713562,-0.6927170753479004,-0.22507859766483307,-0.46136125922203064,0.5062018036842346,0.8588034510612488,-0.60801100730896,-0.7125986218452454,-0.5929856896400452,-0.2673237919807434,1
07940aac58f4b2e1712bc48a2470fcde.atk,0.6988931894302368,1.1560461521148682,0.6426316499710083,-0.06595821678638458,-0.5068842172622681,-0.28176596760749817,-0.25855886936187744,-0.6790240406990051,0.8154946565628052,0.6154390573501587,-0.37819942831993103,0.460769385099411,-0.4082137942314148,0.07895004749298096,0.4046047031879425,-0.07949447631835938,0.08856568485498428,0.4626293480396271,-0.2275082916021347,0.011856011115014553,-0.643606960773468,-0.0785444974899292,-1.1599621772766113,0.0698290690779686,-0.9503735899925232,-0.17164726555347443,-0.7029914259910583,-1.0394254922866821,0.40882018208503723,0.9257788062095642,-0.3402191698551178,-0.1781003326177597,-0.40916404128074646,-0.11433780193328857,-0.5770535469055176,-0.9159137606620789,1.3112998008728027,0.12764374911785126,-0.5901621580123901,-0.2207958698272705,-0.4938957095146179,0.22281312942504883,0.7302757501602173,1.2729915380477905,-0.38075917959213257,0.20257896184921265,-0.06610649079084396,0.17030325531959534,-0.1265178769826889,-0.6513608694076538,-0.28221598267555237,-0.30890336632728577,0.3043462634086609,0.407736599445343,0.4353351294994354,-0.06352005898952484,0.4200216233730316,0.1844143122434616,0.47000208497047424,-0.1708771288394928,-0.4677950143814087,-0.8376328349113464,-1.3171086311340332,-0.8314908146858215,0
